128 784
-0.12546 0.450714 0.231994 0.098658 -0.343981 -0.344005 -0.441916 0.366176 0.101115 0.208073 -0.479416 0.46991 0.332443 -0.287661 -0.318175 -0.316595 -0.195758 0.024756 -0.068055 -0.208771 0.111853 -0.360506 -0.207855 -0.133638 -0.04393 0.285176 -0.300326 0.014234 0.092415 -0.45355 0.107545 -0.329476 -0.434948 0.448887 0.465654 0.308777 -0.189692 -0.400999 0.184336 -0.0584038 -0.377609 -0.00452805 -0.465701 0.409544 -0.240223 0.162577 -0.188209 0.0201432 0.0467468 -0.315148 0.469585 0.275133 0.439499 0.394827 0.0979 0.421874 -0.411507 -0.304017 -0.454773 -0.174527 -0.111274 -0.228647 0.328766 -0.142522 -0.213372 0.0397245 -0.365517 0.300512 -0.429733 0.482735 0.270806 -0.299951 -0.49396 0.311413 0.198451 0.221831 0.264187 -0.428083 -0.141675 -0.383969 0.363223 0.123298 -0.169102 -0.436442 -0.189018 -0.174817 0.229606 0.137971 0.38735 -0.0264061 -0.381087 0.200742 0.244674 0.0229492 0.230012 -0.0418527 -0.00139994 -0.0575317 -0.461842 -0.386365 -0.476807 0.108949 -0.211516 -0.013886 0.383749 -0.271965 -0.107242 0.243913 -0.275811 -0.423262 -0.210276 -0.338779 0.429698 0.30812 0.133399 0.37146 0.303443 -0.314892 0.373314 0.00106319 0.258419 0.31613 -0.278625 -0.475479 -0.30103 -0.0874909 0.252912 0.249254 -0.587856 -0.0249387 -0.0964481 -0.336922 -0.483583 -0.205873 0.401352 -0.20206 0.00156453 0.204383 -0.130326 0.469324 0.462447 -0.248218 -0.00275588 -0.199269 -0.216318 -0.469941 0.0800228 -0.0381675 -0.50506 -0.278316 0.341196 -0.299226 -0.336846 0.079771 0.612112 -0.188995 0.100615 0.303241 -0.244998 0.211247 -0.0822956 0.173965 0.131214 0.000238984 -0.444433 0.302209 -0.188912 -0.317461 -0.459225 0.0908899 0.173747 -0.49011 0.00133658 -0.291373 0.0978995 -0.389013 0.106802 -0.20701 0.432374 -0.36446 -0.155865 -0.290945 0.451421 0.388303 -0.265401 0.193756 0.389083 -0.0256694 -0.0463168 -0.140688 -0.306128 0.427279 0.412374 0.140726 -0.155431 -0.150714 0.225956 0.397998 0.387776 0.27543 0.129525 -0.472166 -0.450371 0.290323 0.0187118 -0.521603 -0.367313 0.0888638 -0.498201 -0.198564 -0.0672252 0.0287282 0.146 -0.1321 0.343602 -0.332773 -0.179119 0.294793 0.242066 0.426804 0.225648 0.0709362 -0.400306 -0.131517 -0.233915 -0.252129 0.481551 -0.105394 0.347955 0.0639514 0.181995 -0.102144 0.0386606 -0.117082 -0.416567 0.233339 0.0263698 -0.282231 0.0988038 -0.365603 0.464087 0.559248 0.525956 -0.0590915 -0.416247 0.380651 0.036762 0.582539 0.557945 0.354797 -0.196024 -0.114668 0.351119 -0.181497 -0.322905 0.0562052 0.394145 0.127652 -0.0500433 -0.501079 0.0473568 0.264866 -0.465156 0.0516888 0.561128 0.268399 0.244163 0.219061 -0.155242 -0.182696 0.295401 0.395942 0.463915 0.406151 0.00974622 0.112551 0.39354 0.221112 0.237873 0.295779 0.389984 -0.161983 -0.122421 -0.410043 0.0376698 -0.553239 -0.119962 0.00927593 -0.3249 -0.040375 -0.460032 -0.41025 0.326227 -0.0359657 -0.106605 0.112978 0.245156 -0.27014 0.135723 -0.336768 -0.351059 -0.0329265 0.0858086 0.276983 0.340571 0.539699 0.0370706 -0.178017 0.295197 -0.223624 -0.0597684 -0.423439 -0.541743 0.321969 0.249051 0.313881 -0.0948247 -0.266975 -0.287212 -0.364644 -0.0529438 0.304028 0.301811 -0.281227 0.382108 0.234175 0.146039 0.288922 -0.0114234 -0.290034 -0.0748677 0.362338 -0.380652 -0.344948 -0.440241 -0.459387 0.355461 0.203728 -0.0256589 -0.415334 -0.088466 -0.167609 -0.344541 -0.00631818 0.033841 0.344408 0.0815625 -0.573306 -0.206614 0.190175 0.0723747 0.355043 0.0979963 -0.359624 -0.302292 0.342008 -0.404996 0.0501164 0.490372 0.189876 -0.0963755 0.157244 -0.0233554 0.0456789 0.441464 -0.11392 0.461194 0.389617 -0.341175 -0.494641 -0.398796 -0.435223 -0.155055 0.450437 -0.299035 -0.182392 0.336776 -0.291027 0.458405 -0.213425 -0.584449 -0.0128057 0.0120387 0.358037 0.130883 0.249498 -0.238511 -0.179867 0.234158 0.302653 0.503577 -0.087377 -0.127982 0.27536 -0.160521 0.414852 0.349992 -0.0768708 0.242489 0.27674 -0.269646 0.580711 0.15951 0.272305 -0.231061 0.495162 -0.0969191 -0.57392 0.208432 -0.678099 -0.359133 0.323871 0.308396 -0.0479873 0.073034 -0.000642618 -0.192018 -0.188304 0.170084 0.25237 0.291579 0.287414 -0.410948 -0.0388933 -0.479452 -0.010095 -0.116266 0.392876 -0.0337212 -0.206502 -0.220636 0.365781 0.227736 -0.395131 -0.408665 0.176742 -0.538962 0.10278 0.054085 -0.581384 -0.562888 0.342315 -0.15362 -0.0719727 0.348097 0.425049 0.471302 0.253152 -0.12374 -0.417747 0.267606 0.01047 -0.121575 0.324031 -0.36485 0.0519415 -0.366911 0.0127759 -0.296674 -0.229905 -0.354405 0.0448704 0.248904 0.142943 0.37201 -0.356759 -0.484303 0.0904305 -0.345968 0.407199 -0.491566 0.484056 -0.479444 0.371337 0.0203246 0.492963 -0.426203 0.0534822 0.454137 -0.0407939 0.0743867 0.122974 0.0427543 0.234045 0.180434 0.595696 -0.466307 -0.325931 0.228625 0.202745 -0.0556814 0.0927516 -0.279539 -0.524818 -0.368414 -0.3681 -0.0472324 -0.47444 0.40572 0.461735 0.177891 0.0120859 -0.19155 0.313794 0.184733 -0.337384 0.401461 0.236558 0.410578 0.246548 0.236851 0.0237831 0.559002 0.476408 -0.621081 -0.724609 -0.45835 0.0048449 0.349844 -0.495521 -0.0026005 -0.287944 0.217385 0.104017 0.268707 -0.0861828 -0.171416 -0.244806 -0.447089 0.348701 0.312838 0.499702 0.496637 0.0560446 0.26457 0.368522 0.258909 -0.235889 0.166661 -0.301426 0.552503 0.0365346 -0.547387 -0.126333 -0.0538904 -0.347863 -0.538394 0.0629887 -0.0993304 0.0687756 -0.140364 0.266173 0.0319466 0.0235837 0.280595 -0.15071 -0.374204 -0.490832 0.25509 0.120297 0.20408 -0.285785 -0.370192 -0.536541 -0.238217 0.131937 0.0290162 0.0302295 0.544731 -0.201059 -0.169898 0.0816358 -0.135909 -0.0607327 0.0924292 0.361998 -0.4156 0.372824 -0.105936 -0.357103 -0.107225 0.427599 -0.0846607 -0.252213 0.110081 -0.275136 -0.424178 -0.37112 -0.371954 -0.348097 -0.373959 0.111112 -0.365686 -0.0799983 0.551291 0.148626 0.388748 -0.165549 -0.211349 -0.37202 -0.226557 -0.298699 -0.463514 -0.365806 -0.30862 -0.1003 -0.416693 -0.204013 -0.0805962 0.0927763 -0.510298 0.245656 0.104051 -0.420087 0.373544 0.420872 -0.438922 -0.223122 0.301386 0.24238 -0.312553 -0.165174 0.0568204 0.155832 0.256199 0.193265 0.258713 0.627867 -0.190809 -0.279962 0.151185 0.434751 -0.0550359 -0.0507462 -0.408156 -0.11415 -0.0721352 -0.354005 -0.259764 -0.160568 -0.493867 -0.177926 -0.288552 -0.172503 -0.380238 0.390527 0.0903032 0.169992 0.311248 0.0619226 -0.328716 0.0736428 0.129135 0.351949 0.143711 -0.0923287 0.0550231 -0.0408835 0.183736 0.0869169 -0.173753 0.42803 0.02454 -0.33766 -0.518746 -0.404662 -0.253898 -0.353097 -0.327858 -0.214904 -0.326732 0.396765 -0.419766 0.024511 -0.0915708 0.476009 -0.383476 -0.0635368 0.394991 0.271497 0.3552 -0.149681 -0.0641296 0.454084 0.752728 0.268172 0.146388 -0.116091 0.262784 -0.394876 -0.235446 -0.136149 -0.0357 -0.294402 -0.384461 0.110589 -0.211384 0.081056 -0.345669 -0.01886 0.032589 -0.448176 -0.163584 -0.366925 -0.449392 0.417656 -0.262227 0.238528 -0.259094 0.183656 0.291029 0.094492 0.0644717 -0.00575496 -0.118388 0.483344 0.305702 0.393856 -0.422402 0.219515 0.402649 -0.357396 -0.437744 0.241154 0.0741461 0.341829 -0.360228 0.295267 -0.298373 -0.336344 -0.335734 0.31384 0.150552 -0.0201914 -0.19677 0.350707 -0.0982763 0.344751 -0.0679889 -0.124222 -0.0217378 -0.185819 0.235665 0.000711503 -0.26432 0.393963 -0.11682 0.0477466 0.386691 0.0904662 -0.387012 0.439829 0.127708 -0.165094 -0.360728 0.294025 0.120073 0.033461 0.393893 0.288597 -0.348325 -0.188276 -0.249848 0.253389 -0.457708 0.0716922 0.263021 0.37649 -0.155562 0.323871 -0.388093 0.347722 -0.372171 -0.10208 0.29834 -0.350303 -0.276567 0.218324 0.216936 0.140935 0.193948 0.042724 -0.248201 -0.154304 
-0.318402 0.408451 0.083392 -0.099149 -0.037994 0.447283 -0.346649 0.08623 0.005889 0.111454 -0.48189 0.372124 0.427165 0.0542858 0.196651 0.422499 0.207239 -0.347461 0.076288 0.106715 -0.075869 0.236444 0.434367 0.425569 -0.049161 -0.386762 0.484841 0.338898 -0.375337 0.420842 0.369896 0.018838 0.091275 -0.100997 -0.449526 -0.174076 0.274336 -0.502247 -0.168101 -0.100737 0.0394708 0.414394 -0.167557 -0.190066 0.243682 -0.0433023 -0.275947 -0.0479612 -0.359911 -0.327272 -0.00600583 -0.081898 0.414846 -0.137606 0.080588 0.132264 -0.486906 0.163537 -0.321988 0.46209 -0.351264 -0.0853762 -0.416229 0.479588 -0.0451204 0.0685697 -0.462167 0.220452 -0.330233 0.366788 -0.404125 -0.423189 -0.562899 -0.114845 0.0292488 -0.450966 0.255577 -0.0662125 -0.0027999 -0.0786421 -0.101126 0.0595594 -0.34476 -0.318072 0.361786 0.446115 -0.126745 -0.226582 0.144731 -0.0912666 -0.479256 -0.389744 0.0921333 0.0132003 -0.564959 -0.345773 -0.337414 0.0716391 -0.617487 -0.50581 0.220915 -0.359859 0.136597 -0.247465 -0.366028 -0.249302 0.201837 0.33205 0.330422 -0.104391 0.168085 -0.295016 -0.206852 0.396336 -0.486998 -0.414659 -0.292958 -0.471978 -0.325717 0.018777 -0.225441 0.227634 0.225291 -0.249905 -0.344594 -0.217478 -0.0254208 -0.23938 -0.0644862 -0.171167 0.00127006 -0.12486 -0.257711 0.398109 0.190442 -0.460452 0.330731 -0.0314637 0.394077 0.299847 -0.074786 -0.477531 -0.235065 0.0424145 0.130566 -0.241288 -0.390929 0.214946 0.352686 -0.0485772 -0.453248 -0.325144 -0.533643 0.440506 -0.515159 0.0230021 -0.406827 -0.133009 -0.0785834 0.0437211 -0.482073 -0.566438 -0.480527 0.289949 0.354162 0.0582165 0.1091 0.165373 -0.324629 0.414412 -0.0870991 -0.128163 0.013811 -0.429686 -0.383704 0.100782 -0.529095 -0.0914699 -0.341652 -0.0186511 -0.164691 -0.0849573 0.166999 -0.620897 -0.299642 -0.342142 -0.0443756 0.235294 0.103344 -0.218012 -0.397965 -0.243357 0.145021 -0.412534 0.00362501 0.0994781 -0.165756 0.268853 -0.401578 -0.441624 0.197514 -0.0517789 0.0961989 -0.2129 -0.317165 0.227912 0.356018 0.125608 -0.234784 0.0697965 -0.263802 -0.529963 0.284506 -0.430342 0.23014 -0.0160942 -0.174833 0.11234 0.443096 0.346503 0.418062 0.220505 0.195328 0.349695 -0.245398 -0.0131708 -0.283763 0.454696 0.382516 -0.526823 0.160918 0.394717 -0.348146 0.0321201 0.24752 -0.498758 0.361218 -0.00255908 0.608646 0.511187 0.288242 -0.282184 0.10346 0.187246 -0.0990327 0.292482 -0.459119 0.190514 -0.0247918 -0.275368 -0.417371 0.197681 -0.160243 0.225449 -0.428317 -0.194016 0.0464574 0.278162 -0.117199 0.141672 0.327846 -0.131772 -0.327495 -0.205452 0.66969 -0.149672 0.537523 0.198841 0.405838 0.41051 0.600487 -0.202542 0.186585 -0.136048 0.0233895 0.219627 0.508494 0.554389 0.270182 -0.0776182 -0.0787726 0.237483 -0.247523 -0.385421 -0.116557 -0.182461 -0.0314165 -0.0958294 -0.311924 -0.546912 0.690625 0.0786708 0.0349487 0.141409 -0.342466 0.478766 0.402794 -0.133108 0.225579 0.511795 0.261546 -0.0979901 0.124212 -0.399688 0.488467 -0.154754 0.4764 0.15658 0.107727 0.0106916 -0.27035 -0.332611 -0.274332 -0.297604 0.423784 0.0845218 -0.30891 0.39357 0.214262 0.220052 0.54564 -0.327678 -0.325891 0.0639293 0.13816 -0.0770018 0.447445 -0.129629 -0.306368 -0.074369 0.0567813 -0.00594739 -0.456513 0.44219 -0.2077 -0.366587 0.388746 0.454039 0.358384 0.303587 0.182919 0.0592693 -0.274206 0.123735 0.150144 -0.243606 0.0553135 0.0564279 -0.23447 -0.270318 -0.0112404 -0.51529 0.226611 -0.113047 -0.0227583 0.181793 0.391988 -0.150524 0.122548 -0.0423711 -0.265617 0.425564 0.307727 0.158442 0.350582 0.367699 0.205655 0.331915 0.222219 0.183526 0.0676509 0.515585 -0.156619 0.332048 0.434638 -0.277643 0.548067 -0.266634 -0.222211 0.21731 -0.347277 0.358328 0.277311 -0.0144151 -0.394879 -0.225497 0.0443418 0.403472 0.114655 -0.213765 0.136916 0.0399822 0.279845 -0.392995 0.258771 0.0846289 0.450179 -0.206193 0.0368318 0.519435 -0.404377 0.463291 0.290077 -0.223492 -0.048055 0.240025 -0.540199 -0.0141296 -0.1982 0.224285 -0.364305 0.331463 0.506128 0.3935 0.184638 -0.449667 0.303815 -0.49314 -0.473151 -0.17639 -0.011357 0.270408 0.175979 -0.0233447 -0.191799 0.515169 0.0278134 0.101828 -0.192498 0.302968 0.187703 -0.262213 -0.320263 -0.00239318 -0.150257 -0.585284 0.416499 -0.0879365 0.165187 0.317178 -0.144469 0.0745158 -0.253025 -0.206997 0.515199 -0.109935 0.39802 -0.271234 -0.286895 -0.470155 0.150435 -0.135183 0.407041 0.0562613 0.560056 -0.171494 0.566678 0.130772 0.152749 0.164799 0.159425 -0.16469 -0.631151 -0.761248 0.240041 0.217528 0.459485 -0.0460764 -0.176598 -0.499164 0.205373 -0.0321612 -0.276405 -0.0700815 -0.448952 0.0801451 -0.231007 0.297488 -0.188731 -0.0887159 -0.490168 -0.318164 0.128913 0.16181 0.215118 -0.10467 0.330642 0.289592 0.0802682 -0.604853 -0.2133 -0.492657 -0.188843 0.479944 -0.302247 0.0215977 0.275433 0.0668207 -0.00897236 -0.440651 -0.165836 -0.0237469 -0.413028 -0.146548 -0.466749 -0.421422 -0.103483 -0.419521 0.0263951 0.236223 0.427967 -0.14446 -0.242564 -0.258791 0.164057 0.226495 -0.519347 0.290771 -0.664845 -0.144487 0.181287 0.2316 0.000607414 0.216796 -0.0423187 0.0714567 -0.505038 0.410053 0.0253864 0.297014 -0.051564 0.141583 0.026403 0.233355 -0.426832 -0.476914 -0.296039 -0.270205 0.373357 -0.233337 0.391701 -0.304496 -0.37615 0.0032806 0.0602447 -0.00186657 0.0448029 0.174668 -0.556212 0.29886 0.508306 0.364721 -0.162936 -0.094615 -0.603886 -0.525776 -0.257207 -0.0673158 0.341301 0.227169 0.242707 -0.0731719 -0.166521 -0.192776 0.463013 -0.401429 0.242434 -0.0652228 -0.154911 -0.00984487 -0.290359 -0.0196863 -0.0742084 -0.238025 -0.409045 -0.170644 0.196613 -0.160181 0.27843 0.430031 0.30822 -0.530894 0.10073 0.369305 -0.307925 -0.265094 0.465558 -0.31899 0.354385 -0.00772372 -0.266491 0.297586 -0.0924815 0.0452277 -0.321996 -0.149898 -0.559989 -0.300677 0.19444 -0.513257 -0.177562 -0.44009 0.129163 -0.387622 0.392262 -0.0313751 -0.136508 -0.333469 -0.400283 -0.101613 -0.249681 0.304996 -0.0533015 -0.254058 0.125245 0.206777 -0.332958 -0.332381 -0.469776 0.215418 0.110556 -0.0320051 0.284425 0.110292 -0.173115 0.22572 -0.446077 -0.522751 -0.230037 -0.622416 0.126337 0.489211 -0.462087 -0.30907 -0.0853078 0.290526 -0.334411 -0.150246 -0.478387 -0.334223 0.497769 0.446459 -0.494166 0.451813 0.13912 0.367918 -0.0480439 0.0115735 -0.0482008 0.166971 -0.295585 -0.494137 -0.357975 0.0195923 -0.447213 0.0517767 0.500915 -0.376158 0.377011 0.0519966 0.477456 -0.267959 0.115399 0.265566 0.388118 0.0810381 -0.0132001 0.158841 0.373663 0.049156 -0.469613 0.430949 0.189527 0.176513 -0.284444 0.160727 -0.109719 0.146517 -0.419435 0.20074 0.459183 -0.521007 0.360237 -0.263903 0.286772 0.388532 0.279683 0.287759 0.381439 -0.122545 -0.217974 0.240685 0.362891 0.301146 0.378358 0.00535974 0.343713 -0.386236 0.0440668 -0.494241 -0.175414 -0.133538 -0.103702 0.197595 -0.109025 -0.0736393 -0.305199 -0.204299 -0.37459 -0.487986 -0.00288535 0.169792 -0.00226947 -0.101778 -0.14551 0.34107 0.0399494 0.0617358 -0.43886 -0.018397 0.000765055 0.0203709 0.155129 0.0924617 0.135343 0.2652 0.312539 0.218123 0.455524 -0.481767 -0.304222 -0.492708 0.144493 0.387597 -0.280072 0.413746 -0.434525 0.437119 -0.169247 -0.403776 -0.0088817 -0.220456 -0.161069 -0.126529 0.362962 0.0956117 -0.145261 0.21127 0.291847 -0.196249 -0.0743998 -0.377202 -0.318848 0.181118 -0.318562 0.025163 0.209046 -0.393123 0.067312 -0.243437 0.462927 -0.0164036 0.307975 0.0620151 -0.445686 0.135421 0.454349 0.104043 0.321135 0.385133 -0.264569 -0.286717 0.111573 -0.0898451 0.343399 0.421352 -0.137475 -0.266804 0.284505 -0.227096 0.322614 -0.076262 0.16755 -0.404465 
0.123859 -0.048232 0.086608 -0.331986 0.236874 0.362797 -0.28326 -0.404285 -0.476361 0.141972 0.107094 0.046697 -0.268053 -0.109094 0.094476 -0.003233 0.487786 -0.36356 0.195145 -0.095681 -0.0718 0.217598 0.192436 0.491256 -0.371606 -0.39589 0.224339 0.078387 -0.225839 -0.420581 -0.414342 0.394191 -0.308133 -0.176628 -0.273344 -0.144406 -0.428722 0.0200453 -0.432387 0.300357 -0.266288 0.0400126 0.380081 0.150878 0.032958 -0.175666 -0.166998 0.169531 0.494296 0.161878 0.057783 0.230651 -0.034794 -0.439858 0.062297 0.457625 -0.324697 0.190005 -0.299066 0.035828 -0.403324 -0.049629 0.256163 -0.151494 0.166728 0.296686 0.427166 -0.266571 -0.101769 -0.350474 0.493123 0.4333 0.0452816 0.346162 0.0232576 0.125344 -0.411394 0.254249 -0.375274 0.326078 0.282028 0.208745 -0.46384 -0.196872 -0.236887 -0.139864 -0.412357 0.436958 0.053802 -0.194476 -0.103029 -0.0518584 0.104859 0.0212076 0.421835 0.0037564 0.514487 0.378084 -0.249891 0.483215 -0.315748 0.408566 -0.0394099 0.397706 0.352349 0.261934 0.269293 -0.206311 -0.42153 -0.0969948 -0.326475 0.194951 -0.1539 0.47561 0.140972 0.322567 -0.365325 0.374296 0.434123 -0.0109563 0.100941 0.251162 -0.341707 -0.010919 -0.0931388 -0.335933 -0.119772 -0.388341 -0.419954 -0.303386 0.514838 0.0360861 0.454853 -0.0577347 -0.176742 0.000100306 -0.0702468 -0.397382 0.140826 -0.283962 0.119588 0.150201 -0.347839 -0.440339 0.27845 -0.0323247 -0.437538 0.493862 -0.449753 0.167295 0.439258 -0.308001 -0.37285 -0.39727 -0.221944 -0.420007 0.154037 -0.470047 -0.00955006 0.505281 0.336948 0.139679 -0.191707 0.0920111 0.00348637 -0.0869572 -0.36929 0.386604 -0.050215 -0.305377 -0.130581 -0.0885685 0.318454 0.230608 0.276886 -0.496842 -0.112277 -0.0707161 -0.536646 -0.267285 0.223347 -0.423322 -0.0255749 -0.346916 -0.592385 -0.37517 0.383192 0.304274 0.520908 0.0633364 -0.355456 0.0119005 -0.0774628 0.330679 -0.401917 -0.011759 -0.349951 -0.175328 0.238201 -0.0275004 -0.132493 -0.104994 -0.0246975 0.276908 0.354355 0.412775 0.26261 -0.1982 0.129122 -0.186351 -0.370139 0.232867 -0.558475 0.30551 -0.0801614 0.18756 0.245159 0.481215 0.206722 0.131124 -0.443894 0.026319 -0.350237 0.237434 0.012222 0.180235 -0.458325 -0.420969 0.211277 -0.418167 -0.429182 -0.501844 0.404928 0.184464 -0.193182 -0.256785 -0.275783 0.0926911 -0.00127429 -0.418683 -0.36853 -0.448368 0.134569 0.292626 -0.211865 -0.441765 -0.375592 0.502648 -0.216065 0.263157 0.123555 -0.11806 -0.294312 -0.378355 0.113926 0.268587 0.144513 0.0383653 -0.464854 0.416737 0.245377 -0.228258 0.456046 0.0336662 -0.0313679 0.0965676 0.233367 0.145978 -0.373946 -0.16583 0.420066 -0.288257 -0.115083 -0.0307769 -0.0144077 0.143337 0.413434 -0.282161 -0.382981 -0.30253 0.386927 0.146396 -0.213458 0.315107 0.340784 0.334889 0.384847 -0.276354 0.244326 -0.00484659 0.378049 0.170484 0.17933 0.0697219 -0.365585 0.0309282 0.450954 0.426617 -0.445025 -0.356046 -0.364003 0.245194 0.351701 -0.254429 -0.0342593 0.311864 0.225665 0.042237 0.090351 0.00909249 -0.201094 0.062324 0.174324 0.361481 0.166681 0.297482 -0.336814 -0.0301308 -0.494359 -0.306796 0.0880269 0.347435 -0.43896 -0.096035 0.256714 -0.310127 0.0329769 0.172997 0.0938566 -0.303164 -0.153554 0.293945 0.0737164 -0.509078 0.258942 -0.464689 0.245734 -0.29694 0.460926 -0.146276 -0.195302 -0.337442 -0.0970267 0.439562 0.519671 -0.124974 -0.0769431 0.101287 0.214545 -0.00611204 -0.111366 -0.0594232 0.217533 -0.511947 0.0725006 -0.169124 0.298665 -0.363598 0.0829928 0.0238494 0.169369 -0.437351 0.079984 0.061485 0.06066 0.103545 0.183565 0.284993 -0.238398 0.381024 0.102626 -0.371029 -0.38864 -0.113236 0.235872 0.0481665 0.129986 -0.0681618 -0.0848455 -0.342066 -0.170527 -0.135568 -0.504449 -0.333814 0.0773226 0.268708 0.551209 0.523079 0.15678 -0.0757924 0.136177 0.285652 -0.381664 -0.0901068 0.340744 -0.136427 0.068541 0.16018 -0.211238 -0.0589987 -0.0963597 -0.462665 -0.553989 0.186954 -0.369684 -0.0693051 -0.262934 0.379681 -0.320739 -0.176226 0.238751 0.254169 -0.298207 0.351405 0.0151978 0.0503405 -0.368758 -0.429704 0.227939 -0.003539 -0.063149 0.229507 0.265861 -0.365508 0.111984 -0.301854 0.34175 0.216141 0.463654 -0.502609 -0.581839 -0.364042 -0.328031 -0.321209 0.310857 -0.363184 -0.38955 0.0623123 -0.187998 0.262923 -0.387964 0.0116513 -0.426075 -0.380601 0.411769 -0.373788 0.032421 -0.088904 -0.152657 0.399833 -0.476779 0.145838 0.480534 0.10303 0.545774 -0.36844 -0.104951 -0.383547 0.0566369 0.353478 -0.299991 0.0781647 -0.407443 -0.0387232 -0.159781 0.309764 0.0356152 -0.138393 -0.356879 -0.357152 -0.235454 -0.209278 0.350212 0.0515969 0.023391 -0.385231 0.36014 0.222814 -0.43075 0.19907 0.0727258 -0.38738 0.0285255 0.00948011 -0.382485 0.313366 0.180004 0.0490297 -0.0925388 -0.148472 0.0539676 -0.028136 -0.521547 -0.0889589 0.248619 -0.0725606 -0.459609 0.282037 -0.258967 -0.211983 -0.345241 -0.176021 0.256752 0.019386 -0.295119 0.37783 0.380005 0.358513 -0.232239 -0.000318551 0.492271 0.226982 -0.532327 -0.550435 -0.183218 0.283808 -0.0718043 -0.128221 -0.512508 0.086432 0.248402 -0.188115 0.210572 0.38374 -0.335471 0.0231391 -0.190377 0.280018 0.0648898 0.133765 0.29749 -0.10403 0.41509 0.033029 -0.342055 0.178401 0.298761 -0.141112 0.35015 0.366229 -0.259251 0.435965 -0.386783 -0.365773 -0.424704 0.308352 0.0818357 -0.392825 -0.105719 0.0507913 -0.46514 0.326998 0.255512 -0.00802379 0.446496 -0.115812 0.465551 0.154475 0.123221 -0.334045 0.381928 -0.07251 -0.338856 -0.488717 0.065398 0.0675894 0.245213 0.381326 -0.405936 0.275312 -0.249984 0.354269 0.291845 -0.0139801 0.159416 -0.230481 -0.0754981 0.304112 -0.022548 -0.158652 -0.0368399 0.330329 -0.172503 -0.344796 0.195114 0.314632 -0.401908 -0.260126 -0.358028 -0.152059 -0.0518235 0.258494 0.170186 0.155567 -0.105774 0.35454 -0.0264333 0.485624 0.123337 -0.420275 0.10467 -0.267013 0.129231 -0.454835 -0.347565 0.373977 -0.258881 0.322665 -0.266027 0.127632 0.183699 0.00725205 -0.194898 -0.287344 -0.466811 -0.196054 0.153163 0.438305 0.370933 0.272741 0.306957 0.193642 -0.191026 0.441468 0.20183 0.0866453 -0.402519 -0.114916 -0.133032 0.283951 -0.00345053 -0.110905 0.484803 -0.385079 -0.104432 -0.48914 0.201182 0.395681 -0.230723 0.369124 -0.203139 0.410711 0.253747 0.304907 -0.481993 0.46281 0.226671 -0.19519 0.331029 -0.20504 0.38985 -0.334871 0.247361 0.0475656 -0.409038 -0.272889 -0.52935 -0.0759469 -0.219316 0.0862943 -0.221429 -0.241761 0.206199 -0.48562 0.371875 0.352462 0.191689 0.110844 0.404485 -0.314781 -0.421852 -0.26049 0.294578 -0.46533 0.082807 0.495439 0.35098 0.0253408 -0.426856 0.349602 0.11644 -0.381871 -0.400304 0.417388 0.172937 0.324225 0.391956 0.0738557 -0.00966012 -0.0985404 -0.212651 -0.0830114 0.260374 0.0902455 0.401708 -0.0518422 0.110674 0.131446 0.091697 0.202634 -0.262567 0.012364 -0.395775 -0.115489 -0.0108514 0.161241 0.458786 0.105519 0.247276 -0.000563871 0.129468 -0.431807 -0.243966 -0.132823 -0.0155833 -0.45385 -0.381583 -0.247792 0.455641 -0.165633 -0.0110839 -0.306448 0.118822 -0.216519 -0.29251 0.016573 -0.494494 -0.492336 -0.280931 -0.463279 -0.391974 -0.16038 0.307359 0.0745291 0.0128283 -0.206396 0.427526 -0.105896 -0.413224 0.116472 -0.385976 -0.153237 0.0145423 0.373135 -0.0154836 0.193149 0.490249 -0.365566 -0.221224 -0.10664 -0.0759806 -0.0876108 0.407618 0.214033 0.107905 -0.190627 0.32379 0.455061 0.321198 -0.498435 0.136401 -0.448865 -0.242385 -0.440432 0.10385 0.186592 -0.38551 -0.116137 -0.0438677 -0.130937 -0.378484 -0.0806553 0.251748 -0.427877 -0.419779 -0.146995 0.440212 0.169474 0.176929 -0.136512 0.093661 -0.489869 0.136096 0.413287 
0.112573 0.373699 0.223973 -0.379442 0.402453 -0.433556 0.033967 -0.357863 -0.488293 -0.077966 -0.204959 -0.014 0.0772 -0.456262 -0.376998 0.058642 -0.156833 0.229173 0.152292 0.345604 0.192493 -0.070069 0.172967 -0.224619 -0.193687 0.288985 -0.05358 0.29838 0.322422 0.357562 0.416635 -0.069015 -0.181133 0.0822001 -0.127985 0.104283 0.21196 0.18963 -0.125108 -0.32648 -0.0604787 -0.352461 0.39249 -0.152907 -0.337056 -0.470857 0.145423 0.136372 -0.160849 -0.431704 -0.0886696 -0.188623 0.177121 0.105779 -0.135406 -0.282107 0.488036 -0.045998 0.188274 -0.358558 -0.0143789 -0.472464 0.00531383 0.464862 -0.111769 -0.454206 -0.458603 -0.0975111 -0.322695 -0.450762 0.264648 -0.0990142 -0.265191 0.336843 -0.422742 0.430338 -0.197087 0.384156 0.106077 0.328727 0.483763 -0.211569 0.461135 -0.110518 -0.114488 -0.159613 0.0410872 -0.343934 0.0465034 0.0506488 0.276403 0.326019 -0.115049 -0.259444 -0.276706 -0.337661 -0.442599 0.0094364 -0.0285206 0.591268 0.207402 -0.0544167 0.073897 -0.398423 -0.160592 -0.0174147 -0.114678 -0.156491 0.476531 0.366371 0.120126 0.069377 0.12066 -0.298687 -0.105905 -0.46164 -0.0262327 0.0454087 -0.264864 0.446001 0.32379 0.120708 -0.0778508 0.258639 -0.407416 0.262435 -0.314778 0.459544 -0.0884076 0.44479 0.462322 -0.357191 -0.117389 0.194278 -0.212291 0.16845 -0.0679831 -0.186834 -0.232304 -0.293864 0.261798 -0.113459 0.00914834 -0.0146114 0.0480414 0.304451 0.395873 -0.209515 0.150617 0.0467102 -0.226301 0.24942 -0.401078 -0.340031 0.27962 -0.0244936 0.319526 0.364312 -0.247053 0.622781 0.00947175 -0.158092 -0.0638332 0.315096 -0.594761 -0.0512099 0.196149 0.226129 0.192532 -0.365565 -0.199744 -0.142799 0.268596 -0.295011 -0.419864 0.28417 -0.679478 0.210135 -0.0771186 0.33405 -0.172226 -0.487229 0.119242 0.10515 0.203099 -0.126656 0.47976 0.335783 0.102823 0.397388 0.367597 0.0460909 -0.405882 -0.00242658 -0.411596 -0.0797733 -0.092894 -0.433661 -0.152306 -0.390551 0.254992 0.360967 -0.544529 0.245084 -0.112801 -0.299923 -0.543009 -0.0800105 0.274254 0.000646657 -0.807056 -0.542463 -0.0640968 0.0101546 0.048829 0.125098 0.393723 0.439935 -0.0722208 0.41547 -0.116634 -0.0100671 -0.261731 0.150499 0.485641 0.103493 -0.136343 0.150633 -0.42457 0.298331 -0.134896 -0.254141 -0.0849993 -0.0348496 -0.603577 -0.162673 -0.479103 -0.174034 -0.0452212 0.124319 -0.0115722 0.0626597 -0.235631 0.629358 -0.0185727 0.111494 -0.250333 -0.427766 0.0383545 -0.480924 0.236765 -0.182251 -0.499865 0.0106489 -0.449744 -0.225274 0.14222 -0.52325 0.19369 -0.638004 -0.435533 -0.0223662 -0.347252 -0.514107 -0.29101 -0.5223 0.000491439 -0.323878 0.173623 0.131279 -0.00941965 0.871709 0.31262 0.631137 -0.441388 0.11375 -0.180301 -0.189956 0.112011 0.201735 -0.495637 -0.333156 0.211114 0.159529 0.38231 0.207182 0.345506 0.0964596 -0.318025 -0.509688 0.00479627 0.0275761 -0.501862 -0.286735 0.288716 0.026436 -0.128515 -0.0634115 -0.119218 0.242164 0.198426 -0.23828 0.438126 -0.217724 0.0828655 0.282116 -0.301219 0.15707 -0.027718 0.383572 -0.285505 0.190272 0.0342463 -0.262357 -0.444716 0.054537 0.21479 -0.152083 0.146077 -0.0672932 0.175664 -0.382211 0.231399 -0.410088 -0.363703 -0.523592 -0.224278 0.388665 0.0420472 0.480261 -0.313273 -0.264258 -0.286036 -0.523332 -0.385364 -0.086357 -0.007135 -0.0962938 0.0314199 0.112756 -0.544656 -0.0687842 0.459708 -0.0111589 0.357436 -0.0282283 0.420045 0.487511 0.048493 0.290568 -0.437238 -0.748716 -0.169274 0.0993632 -0.142639 0.0142693 -0.31321 -0.198975 0.289229 -0.0474811 -0.19628 -0.16238 -0.504396 -0.200199 0.146459 0.473916 0.348106 -0.442029 0.441268 0.312916 0.330954 0.0228517 0.172419 -0.0857918 -0.291668 -0.0943873 -0.27028 -0.196312 0.174983 -0.351174 -0.839049 0.109688 0.395943 0.242179 0.453352 -0.0166397 0.481546 -0.373916 -0.143928 -0.286685 -0.303698 -0.359116 0.122414 0.280921 0.0779075 -0.345007 0.374415 0.293254 -0.0692351 0.287477 0.0488422 0.0629956 0.216035 -0.267724 -0.032638 0.252737 -0.0365761 -0.759642 -0.690912 -0.696639 -0.00948782 -0.11182 -0.296651 0.604283 0.182734 -0.264237 0.00655583 0.165148 -0.416789 -0.225236 0.306965 -0.0412277 0.0461274 -0.0779562 -0.331215 -0.123353 0.0578341 -0.247626 -0.305704 0.295411 0.136487 0.00824286 0.320598 -0.424662 0.0952284 -0.598075 0.298092 0.247791 -0.0313012 0.451478 0.128272 -0.0741926 0.0947242 0.141112 -0.38827 0.109733 0.48907 -0.308753 0.292595 0.407477 0.449041 0.432212 0.170146 0.721737 0.388522 -0.158973 0.0476288 0.138721 -0.292645 0.106625 0.0876608 -0.49888 -0.28443 0.114022 -0.0964207 -0.530039 -0.516216 -0.0943528 0.482847 -0.214081 0.23038 -0.277474 -0.190562 0.344732 0.236077 -0.401548 -0.071298 -0.470973 -0.0116449 0.141682 -0.27616 -0.0950886 0.0568079 0.58268 0.476149 -0.432749 0.347154 -0.0871368 -0.171815 0.0236344 0.0493232 0.189674 -0.089374 -0.157506 0.398058 -0.0476528 0.0216158 -0.137515 0.206907 -0.327985 -0.34221 0.410768 -0.398459 0.00596668 -0.279288 -0.461066 -0.459815 -0.341071 0.444126 -0.253422 0.394958 0.20104 0.161655 0.406073 0.116876 0.144123 -0.420722 -0.367991 0.184866 0.359652 0.315737 -0.0602792 0.491339 0.0393749 -0.0314699 -0.235486 0.136614 -0.42701 -0.252347 0.339453 -0.293161 -0.42819 -0.430992 0.441231 0.00347678 -0.048487 0.319533 0.361075 -0.225297 0.199794 0.687174 0.615014 -0.229458 0.417487 0.13615 -0.127163 -0.112342 -0.532685 -0.495188 0.236569 -0.48376 -0.128172 0.0845467 -0.373735 0.467098 -0.355432 -0.285419 -0.226875 -0.269911 -0.498117 0.229345 0.468005 -0.271828 0.253647 0.282114 0.391745 -0.148795 -0.129861 0.0970896 0.503653 0.572699 -0.149311 0.107915 0.463628 0.227843 0.360356 0.129982 -0.140795 0.0733821 0.219486 -0.445834 0.0619976 0.163746 -0.402654 0.199374 0.0544566 0.449462 -0.457578 -0.234674 0.101655 -0.185743 0.281222 0.217147 -0.551529 -0.0518636 0.0394082 -0.0227095 0.266499 0.213677 0.127629 0.237102 -0.0797848 0.338398 0.138221 0.319914 0.410551 -0.23267 0.369104 -0.361552 -0.135397 -0.132925 0.458298 0.311863 0.187351 0.226173 0.0620734 0.447091 -0.00374058 -0.101001 -0.31181 0.155952 0.057509 -0.148627 -0.502249 0.259269 -0.527649 0.0897636 0.390948 -0.0197369 -0.277271 0.162782 0.358549 0.0876701 0.449234 -0.487894 -0.0591945 0.177071 0.32251 -0.307374 0.302922 0.0358779 -0.117343 -0.374172 0.365297 -0.342727 -0.190212 -0.207823 0.382294 0.0599332 0.168123 -0.284495 0.164974 0.088091 0.334842 0.544696 -0.32683 0.141942 -0.530852 -0.133358 -0.361842 -0.306756 -0.291676 -0.04346 -0.251887 0.175693 -0.122686 -0.378081 0.313919 -0.229765 -0.0823417 0.181797 -0.167544 -0.443414 -0.126079 0.426562 0.123844 0.141077 0.126377 -0.329758 -0.0504935 0.321192 -0.26913 -0.139337 -0.14508 -0.0548914 0.243368 -0.661017 -0.101273 -0.415814 0.377035 -0.420031 -0.0766008 0.237774 0.17521 -0.0608305 -0.125887 -0.101305 -0.235723 -0.294667 -0.01696 -0.231466 -0.212538 0.156756 0.468536 0.104718 -0.423149 -0.45138 0.388139 -0.272666 -0.495462 0.0336197 0.0792766 0.0130192 -0.371853 -0.597547 0.406735 -0.272839 0.16814 0.221467 0.144165 -0.192393 -0.257571 0.0834984 0.376358 0.447406 -0.394094 -0.345171 0.444736 0.236535 0.382994 -0.297367 0.087586 0.204216 0.186399 -0.0864457 -0.486961 0.0722952 -0.27507 -0.102936 0.445456 -0.109828 0.318013 -0.327588 0.15464 0.484537 -0.392377 -0.492157 -0.0678127 -0.423437 0.214315 0.395897 -0.066941 -0.241288 -0.065597 0.223448 -0.490946 0.089454 0.113292 0.137688 -0.257978 0.214053 -0.41004 -0.303646 0.375177 0.23798 -0.486362 -0.249771 -0.284215 -0.229325 -0.252566 -0.437739 -0.0409323 0.230689 0.106199 0.172864 -0.420373 0.446685 0.329214 0.284607 0.316693 0.432711 0.044254 -0.299718 0.116784 
0.242881 0.237917 0.021449 -0.431541 -0.128887 0.420767 0.084449 0.038332 -0.231146 -0.131551 0.395346 0.166463 0.287387 -0.045655 0.130247 -0.251616 0.205461 -0.072399 -0.057454 0.149322 0.436281 -0.435994 0.324743 -0.207617 -0.056081 -0.478087 -0.198954 0.002631 -0.443824 -0.008904 0.427111 -0.394607 0.264441 -0.090329 0.155174 -0.239763 -0.340508 -0.339537 -0.429508 -0.314607 0.163717 0.374941 0.30461 0.188496 -0.388443 -0.210808 -0.19012 -0.249846 0.0159182 0.0383022 -0.142886 -0.146211 0.328556 0.289293 -0.192204 0.413788 0.452815 -0.173257 -0.145575 0.005634 0.442613 0.376323 -0.397429 -0.107269 0.0540862 0.00935915 -0.29231 0.370151 0.159787 0.291746 0.312667 0.179299 -0.11789 0.078264 -0.322788 0.21945 -0.289288 0.233864 -0.253287 -0.373461 -0.330869 -0.497961 0.21874 0.232401 0.014933 -0.338637 -0.420418 -0.481371 -0.325249 0.393534 -0.257368 -0.137553 -0.389089 -0.299522 0.00973025 0.1235 -0.357355 -0.642633 -0.335584 -0.469695 -0.504896 0.310604 0.119888 0.049215 -0.083207 0.0410654 0.155158 0.253555 0.224025 -0.341757 -0.00323484 -0.088042 0.370527 0.131419 0.0188804 -0.387196 0.109981 -0.373642 -0.17934 -0.390712 0.174938 -0.321463 -0.207167 0.232837 -0.555142 -0.313719 -0.477926 -0.745923 0.145347 -0.515643 -0.134517 -0.0850061 0.131551 0.381265 -0.050046 -0.32249 0.221104 -0.00527573 0.318503 0.327099 0.343326 -0.014905 -0.166233 0.296731 -0.0412243 -0.304949 0.3114 0.332604 -0.079775 -0.471171 -0.214174 0.0321247 0.0929287 -0.628154 -0.689375 0.160622 -0.191864 -0.0246004 0.415831 -0.368123 0.372388 -0.306632 0.00841006 0.498459 0.0202174 0.521052 0.082486 -0.170002 -0.279889 -0.14948 -0.127386 -0.431244 -0.122514 -0.0321073 0.178492 0.117322 0.178173 -0.563746 -0.387535 -0.0817983 -0.298317 -0.81627 0.0258974 0.169726 0.0732239 -0.374754 0.397978 0.100173 0.34748 0.223015 0.326233 0.126298 -0.187053 0.286501 0.136717 0.257359 -0.330119 -0.305037 0.390711 0.250545 0.439631 0.281919 0.035321 0.123829 0.334338 -0.0221174 -0.00932347 -0.6127 -0.415003 -0.176494 -0.174877 -0.28148 -0.164441 -0.0743515 -0.123909 -0.185368 0.419268 0.0743375 -0.109315 -0.259576 0.300767 -0.0514166 0.342681 0.168325 0.296241 -0.227997 0.192854 -0.238828 0.454106 0.148437 -0.218934 -0.300831 -0.387832 0.0563569 -0.550366 -0.269138 -0.618024 0.112832 0.376725 0.171513 0.414205 -0.162663 -0.387386 0.115488 -0.151848 0.0877387 -0.309389 -0.149138 -0.406493 0.39246 -0.249864 0.0584313 -0.461021 0.167649 -0.176544 0.392376 0.405588 -0.175513 0.364519 0.426932 0.164858 0.155191 -0.524498 -0.302442 -0.829037 -0.50283 0.492179 -0.0921984 0.352948 0.255669 0.291113 0.416858 -0.347283 -0.375249 -0.091366 -0.381309 -0.447099 -0.14481 0.278491 0.0490751 -0.187222 0.154849 -0.264042 -0.491426 0.276743 0.112077 0.208851 -0.498691 0.161589 -0.0793482 -0.236659 -0.178991 0.14733 0.0145945 0.164906 0.459573 0.148452 -0.14068 0.178433 -0.221204 -0.364493 0.093054 0.374844 0.409877 -0.152514 0.00391256 -0.291205 0.49065 0.481122 0.149531 0.310355 0.206929 0.096693 -0.462108 -0.0880469 0.147043 0.0754665 -0.371798 0.219567 -0.513497 -0.0119989 0.356895 0.193265 0.128126 -0.280451 -0.344745 0.0971071 -0.0563223 -0.461008 0.164863 -0.126421 0.14733 0.30291 -0.354409 -0.48242 0.279198 0.109697 0.199655 0.342316 0.288301 0.456534 0.0133824 -0.00744071 -0.0771218 -0.452291 -0.0968332 -0.317634 0.405101 0.224706 0.321315 0.0943429 -0.367426 -0.376475 0.0888986 -0.481088 -0.0803296 0.272814 0.333321 0.0835378 -0.353908 0.323338 0.373015 -0.314664 0.237119 -0.21347 0.302647 0.497135 -0.479291 0.384275 0.130019 0.520414 0.0183502 0.416421 -0.32228 -0.0645205 -0.29698 0.784867 0.402916 0.479039 0.318721 -0.315178 0.0656956 -0.468951 -0.378044 -0.340858 -0.138862 -0.374709 -0.47158 -0.377694 -0.380937 0.45525 0.257024 0.467763 -0.06026 -0.221624 0.296058 -0.180358 -0.193633 -0.213873 -0.320761 -0.0502181 0.1451 0.412423 -0.146454 -0.134264 0.332079 -0.394315 -0.190625 0.404975 -0.371407 -0.566789 -0.0352894 -0.130555 -0.0161459 0.142881 -0.503355 0.0247115 -0.0171811 -0.374283 0.123463 -0.226359 -0.012166 -0.417804 -0.0635088 -0.242638 0.306676 -0.378196 -0.0112029 0.0663641 0.303284 0.216938 0.219158 0.419304 0.381199 -0.187101 -0.0438392 0.0847919 0.36121 0.35459 -0.120092 -0.246722 -0.0781964 0.0858988 -0.0970061 -0.0982459 0.293716 -0.174906 0.35755 -0.0931949 -0.171767 -0.0467784 0.224758 -0.421526 -0.333027 0.372302 -0.290053 0.0490892 0.0439669 -0.111179 0.157626 -0.173297 0.0831695 -0.13591 0.169845 -0.473061 -0.115919 -0.194284 -0.142506 -0.296241 -0.459434 0.232815 -0.289532 0.368583 0.432042 0.0492543 -0.360784 -0.125452 0.297733 -0.135023 -0.43908 0.041753 0.286655 0.253146 -0.220072 0.16992 -0.213924 -0.120043 0.314808 -0.255613 -0.288977 -0.437021 0.456969 0.28697 -0.0996814 0.196416 -0.42684 -0.0410544 -0.240972 -0.503146 -0.0726432 0.40011 -0.45364 -0.214349 -0.292647 -0.261825 0.408435 -0.0346936 -0.0602361 0.231603 -0.402421 0.0347092 0.0580512 0.0587304 0.537716 0.184084 -0.173942 0.299945 -0.325135 -0.437886 -0.223461 -0.294173 -0.0927561 0.0659145 0.354494 -0.0903375 -0.0894648 -0.546471 -0.52323 0.0282846 -0.0396448 0.339287 -0.339136 -0.475028 -0.0508221 -0.264985 -0.510191 0.14628 -0.438432 0.17885 -0.175754 -0.402883 -0.129904 0.197825 -0.0506536 0.380468 -0.404989 0.201916 -0.301441 0.0395087 0.0487002 0.412082 -0.25479 -0.57121 -0.578299 0.250607 -0.00224342 0.283276 -0.243883 -0.155824 -0.469779 0.461492 0.168217 0.430797 -0.282332 -0.0252776 0.0933382 -0.198753 0.39578 0.392388 0.384538 0.417896 -0.0555858 -0.149004 0.281282 -0.58602 0.0398186 0.0562496 0.117205 0.350741 -0.40191 -0.274813 -0.502294 -0.0877578 -0.250894 -0.152823 0.330716 0.428166 -0.314264 -0.127491 0.428631 -0.443282 -0.436739 -0.430313 0.0332628 -0.436154 0.367092 -0.0719342 0.206576 -0.101114 0.0393774 0.259435 0.256943 0.29953 0.111365 0.434243 0.163678 0.0294707 -0.667164 -0.559004 -0.323671 0.143936 -0.0859351 -0.0881507 0.375785 0.393843 0.409175 -0.186122 0.191056 -0.229675 -0.317833 -0.347369 -0.166489 -0.115777 0.294094 -0.370854 0.40038 0.168679 -0.0446155 0.201519 0.016466 0.215989 0.0426473 -0.187285 -0.55806 -0.193344 0.200145 -0.186915 0.213297 0.135834 0.444179 0.331318 0.0654703 0.157155 0.398386 -0.100481 -0.173205 -0.489188 0.316785 0.298659 -0.398599 0.0536565 -0.0598223 -0.388584 0.578962 -0.307994 -0.301145 0.25709 0.366455 -0.27557 0.283815 0.0438221 -0.519784 -0.478046 -0.0519007 -0.182425 0.418143 0.29946 0.497792 -0.229198 0.468672 -0.0680767 -0.152481 -0.44965 -0.447235 0.192011 -0.0458701 -0.289199 0.0833738 -0.312328 -0.0623248 -0.23862 0.277881 0.278128 0.00134888 -0.113399 -0.0461602 0.385712 -0.16054 -0.303969 -0.42779 -0.0685572 -0.0483521 0.329106 -0.290443 -0.124497 0.327927 0.33948 -0.116127 -0.040876 -0.196714 0.432555 -0.381356 0.433749 0.183985 0.0304391 -0.474314 -0.0350456 -0.126638 -0.365159 0.165248 0.3998 -0.00256551 0.236822 -0.430334 -0.0859959 -0.3899 0.103462 0.432619 0.143708 -0.448009 -0.157563 0.0497997 -0.0948812 0.348406 0.326336 0.111831 -0.126542 -0.244664 -0.394126 -0.145102 -0.086827 0.175823 0.158039 -0.429992 -0.104798 -0.31955 -0.349385 0.318945 -0.467884 -0.0747015 -0.360593 0.348683 0.0337638 -0.277694 -0.00223689 0.222567 0.444621 -0.286413 0.38658 0.437123 0.416229 0.135411 0.129821 -0.096789 0.252398 0.031294 0.177438 -0.071542 0.231496 0.324472 -0.353564 0.33293 0.0402046 0.344894 -0.0682629 -0.120777 0.414717 -0.249414 0.341279 -0.0175338 0.0122193 -0.191659 0.0740997 -0.174746 -0.46438 -0.229554 -0.493907 0.477089 0.462307 -0.105594 0.228371 -0.154194 0.171093 0.30543 
0.446756 -0.099788 0.283298 -0.234072 0.490332 -0.47423 0.103529 0.159506 0.188046 -0.379612 0.43853 -0.318817 0.122753 -0.277324 -0.192784 0.046459 -0.082807 -0.339774 -0.329064 -0.081855 0.257283 0.397965 -0.415872 -0.106896 -0.399754 -0.483408 0.161719 0.102449 -0.336981 -0.266187 -0.476292 0.334947 0.474691 -0.36454 -0.268525 0.36841 0.426443 -0.0803893 -0.449386 -0.460608 0.07395 -0.105418 -0.46728 0.0834995 -0.490461 0.287282 -0.193567 -0.459721 0.088346 -0.102418 0.473734 0.044199 -0.224761 0.209439 -0.228508 0.404243 -0.125278 0.049869 -0.449427 -0.073879 0.332364 0.305649 -0.275683 -0.274558 0.315385 0.430263 -0.400422 -0.0466452 -0.158947 0.382341 -0.403987 -0.271734 0.262374 -0.44346 -0.0179237 -0.0680958 -0.177193 -0.110728 0.0301854 -0.338282 0.0721204 0.305432 0.260161 -0.3461 -0.350751 -0.231826 -0.135038 -0.091368 0.169446 -0.442136 -0.464502 -0.108599 0.203936 -0.294624 0.148156 -0.236021 0.388541 0.342579 -0.27493 -0.30695 -0.0477512 -0.217074 0.0791418 0.202455 0.0530212 0.210321 -0.124382 -0.347581 0.24249 -0.137698 0.171253 -0.229356 -0.41877 0.492582 -0.330479 0.492546 0.486664 0.313277 0.179003 0.092723 0.379448 -0.25308 -0.0272828 0.116197 -0.119836 -0.14219 -0.213005 0.0419565 0.354392 -0.301501 0.387272 0.0526129 0.176746 -0.139396 0.16383 -0.557187 0.326634 -0.465436 0.381763 0.491963 -0.205933 -0.289681 0.26736 -0.252918 0.375283 -0.372309 -0.377683 0.427066 0.0720354 0.168671 -0.299367 0.0961893 0.0780846 0.175329 0.219888 0.0324071 -0.0568236 -0.194434 0.26954 -0.332774 -0.0188545 -0.403681 0.0115744 0.16318 -0.281515 -0.449366 -0.370206 0.105877 0.349446 -0.455003 0.248319 -0.127197 0.0299381 0.477399 -0.180718 -0.0923174 -0.47896 -0.39669 -0.176353 -0.287605 0.228423 0.0533742 0.0735219 -0.280213 -0.0600233 0.328484 0.453705 -0.474764 0.310537 -0.0314768 -0.0693498 -0.0837385 -0.480181 -0.427218 0.0986146 -0.160336 0.417268 -0.0934156 -0.34184 0.245287 -0.0885226 0.131636 0.364517 0.542028 0.37395 0.223861 0.350874 0.656853 -0.127412 -0.573426 -0.296611 -0.182768 0.348096 0.295533 0.175608 -0.386407 0.227722 -0.35546 -0.0364959 -0.0279746 -0.195359 -0.384055 -0.408358 0.331693 0.418398 0.149873 -0.386594 -0.0474331 0.380573 0.373198 -0.183088 -0.291575 0.206944 -0.198345 -0.129179 -0.475265 -0.207251 -0.0817751 0.206642 0.16423 0.30218 -0.225324 0.161808 -0.0208519 0.0712891 -0.331833 -0.419302 -0.495063 -0.230713 -0.432037 -0.327065 0.485229 -0.055896 0.0321661 0.383613 0.550793 0.159717 0.372837 -0.0126284 -0.0271246 -0.158645 0.0231872 -0.0341022 -0.609455 -0.770811 -0.0619455 -0.32864 0.304916 0.506552 0.458555 0.278966 0.280065 -0.0597281 -0.0203955 -0.0399765 -0.391301 -0.529338 -0.252586 -0.0722795 0.113481 0.349959 -0.303526 -0.369588 0.498763 -0.383638 -0.0115934 0.154936 0.0602164 -0.579484 -0.860498 -0.834855 -0.337146 -0.173445 -0.250917 0.410347 0.574757 -0.101707 0.190125 0.123597 -0.344578 -0.294755 -0.0405953 0.250328 0.181738 -0.0231863 0.177646 -0.152058 0.140682 -0.0338178 -0.309954 0.201603 0.0625411 -0.137902 0.369797 -0.514859 -0.32179 -0.689512 -0.0894276 0.0355207 -0.24418 0.147267 0.0838555 0.518556 0.0193474 -0.0944627 0.399517 -0.431153 -0.468653 0.0637588 0.374726 -0.196203 -0.510484 -0.226038 -0.0103414 -0.338207 0.158325 0.497749 -0.0469864 -0.142522 -0.0915474 -0.387731 0.337696 -0.175685 -0.230147 -0.070706 -0.250646 0.119346 -0.156482 0.484527 0.580614 0.296657 0.328294 -0.421115 -0.146855 -0.17053 -0.0496424 -0.144601 -0.205047 -0.376097 -0.124041 -0.337108 0.241268 -0.291283 -0.440861 0.0523696 0.0958375 0.3776 0.085576 -0.144615 0.273423 -0.0153457 -0.455751 -0.028675 0.243993 -0.036917 0.0243078 -0.194507 -0.287484 -0.0519929 -0.0209817 -0.564721 0.273022 0.0922506 0.0178122 0.263456 -0.466364 -0.0639575 0.108954 0.331986 0.284224 -0.221592 0.440632 -0.375654 0.375165 0.471832 -0.31844 0.230587 -0.456259 -0.143095 -0.0644617 0.0194305 0.321059 0.0802261 0.0393596 0.315898 0.401776 -0.619427 0.325518 -0.551105 0.114425 -0.39514 -0.436846 -0.0978367 0.179501 -0.135176 -0.455959 0.0944275 0.400892 -0.114337 -0.283851 -0.057423 -0.451637 0.321031 0.328761 0.0922229 -0.176973 0.208782 -0.152185 0.158282 -0.116744 0.0269771 -0.0676121 -0.18526 0.370301 -0.104228 -0.000821176 -0.339847 -0.173442 -0.151356 -0.3245 -0.405924 0.163865 0.327882 0.000518529 -0.295144 0.171066 -0.417628 -0.0546025 -0.336633 -0.315537 -0.295611 -0.110709 -0.46789 -0.168099 -0.10846 -0.16083 -0.150887 0.268256 -0.533437 -0.132894 -0.414278 -0.43695 -0.00123777 -0.0742164 0.2508 -0.216571 0.304566 -0.380851 -0.385831 -0.366301 -0.216341 0.025981 0.14216 -0.435634 0.454629 0.349523 -0.203388 -0.422809 -0.326539 -0.362288 -0.405706 -0.0465512 -0.397914 -0.292015 0.466228 -0.00274433 0.118161 -0.476652 -0.1942 0.011601 -0.451342 -0.487351 0.0206781 -0.152023 -0.145401 0.189198 -0.00568193 -0.382454 -0.0548607 -0.314312 -0.40577 0.476584 0.0996698 0.229338 -0.184696 -0.106841 -0.26103 -0.385459 -0.32739 0.288005 0.0737459 -0.0321768 -0.0150025 0.256089 -0.546204 -0.279857 -0.420998 0.0478225 0.383415 -0.288835 0.254636 0.106045 -0.256006 0.0562685 0.0447214 0.575623 -0.26914 0.260797 -0.194542 0.231308 -0.0826146 0.0791674 0.332612 0.304131 0.374105 -0.420337 0.155623 -0.356445 -0.123862 0.0343498 -0.100747 -0.0293862 0.503373 -0.393657 -0.0331528 -0.318403 -0.449148 -0.388888 0.16172 0.182613 0.404333 0.588553 -0.144068 -0.0413224 0.184796 -0.0338773 -0.0843614 -0.139687 0.0924478 0.0759465 -0.338542 -0.0284027 0.054525 0.0885955 -0.34688 0.191648 -0.467794 -0.130117 0.263209 0.161631 -0.189526 0.104857 -0.0270591 0.155164 0.223045 -0.0473871 -0.176178 -0.410792 -0.132291 -0.0134606 0.233866 0.149037 -0.193411 -0.510129 0.0113222 -0.214298 0.233076 -0.476054 0.0848281 0.441482 -0.324599 -0.0103405 -0.375177 0.157806 0.13391 -0.0701159 -0.00604589 0.326146 -0.214498 -0.385246 0.307272 0.00104521 0.251525 -0.0934816 0.258232 0.0318862 0.411926 0.501003 0.172076 -0.230611 -0.242243 -0.329764 -0.247259 -0.197377 0.0540641 0.087992 -0.0734999 0.115421 -0.417418 -0.404104 -0.283478 0.0897604 -0.223593 -0.270051 -0.151318 0.230534 -0.401594 0.335385 0.250759 0.345607 0.425387 -0.458597 -0.332814 0.435758 -0.011007 0.154238 0.239304 0.192953 0.42033 0.491263 0.216843 -0.214198 0.379824 -0.450779 -0.268919 0.397386 -0.24308 -0.274554 -0.341774 0.392358 -0.0105533 0.139882 -0.268861 0.291757 0.273691 -0.163229 -0.151015 -0.207693 0.438744 0.204712 0.381542 -0.262847 0.305725 0.33639 0.176293 0.418692 -0.153405 -0.386999 0.172927 0.228766 0.0753502 -0.293182 0.004456 -0.18781 -0.0724978 0.147126 0.26137 -0.240942 -0.0599211 -0.146329 -0.276987 0.324847 0.385745 -0.30805 0.0534775 0.202028 0.221105 -0.325728 0.341702 -0.227695 -0.237641 -0.4598 -0.0136791 -0.395039 -0.257568 -0.190618 0.306145 0.375417 -0.197461 0.358698 0.357231 0.264651 -0.353305 0.190332 0.449063 0.187964 -0.159916 0.0123284 0.170173 0.0531647 -0.368383 -0.229464 0.308767 0.385895 -0.401312 0.372421 -0.208508 0.161657 0.280837 0.365745 0.465487 -0.179182 0.360737 -0.371069 0.204853 0.241719 0.177723 -0.247685 0.373043 -0.331142 -0.446365 0.217465 -0.024524 0.349056 -0.118565 -0.334999 0.330513 0.0445282 -0.311555 0.208001 -0.011748 0.103718 -0.0464585 0.312563 0.335659 0.224734 -0.384562 0.335013 0.16975 0.197148 -0.138473 0.379017 0.225372 -0.38741 -0.092222 0.38638 -0.452803 0.461417 0.179163 0.131376 -0.229441 -0.251563 0.441183 -0.202632 0.275179 -0.106928 -0.36075 -0.489349 0.0462132 0.475072 -0.13714 -0.143725 -0.15538 0.0212436 -0.0596351 0.378307 0.00458526 0.00764957 -0.361648 0.48274 -0.250027 -0.426636 0.163146 0.095366 
-0.084854 -0.077808 0.285064 -0.304287 0.320253 0.148747 -0.08103 -0.041971 -0.243353 0.252114 0.012875 -0.179145 0.09605 0.495734 -0.064738 0.420691 -0.154983 -0.445267 -0.295758 -0.081305 -0.280365 -0.499773 0.415002 0.343879 0.242292 -0.332185 -0.379636 -0.432395 0.224029 0.428808 -0.069464 -0.380859 0.012393 -0.151168 -0.125175 0.121331 0.218718 -0.389396 -0.46441 0.49433 -0.267272 -0.446169 -0.309418 -0.460245 -0.108541 0.301898 -0.158802 -0.055817 0.175587 0.008894 0.361446 0.366036 -0.490089 0.278046 -0.039266 0.488841 -0.016768 0.486896 0.254569 -0.251395 0.038395 0.492136 0.357531 -0.402633 0.206024 -0.163284 -0.49878 -0.0954585 -0.268951 0.282921 -0.181541 0.298017 -0.532415 -0.213848 -0.272908 -0.26942 -0.431965 -0.313285 0.0553008 -0.208639 -0.082605 -0.123133 0.375905 0.405299 -0.007043 -0.169844 -0.393199 0.453403 -0.439773 -0.198765 -0.19911 -0.179324 -0.339513 0.258385 -0.386072 0.103512 -0.438596 -0.480847 0.30433 -0.390545 0.241738 -0.0129006 -0.456952 0.438716 -0.27188 0.345915 -0.335459 0.353853 -0.486778 0.01178 0.269443 0.434796 0.409202 0.319625 0.388191 -0.298826 -0.207282 -0.200425 -0.116004 -0.100596 0.0167229 -0.390492 0.100869 -0.392533 -0.242812 -0.0601845 0.298834 0.278939 0.166962 -0.350942 0.053531 -0.448246 -0.191312 -0.142971 -0.477801 -0.223099 0.460323 0.457653 -0.147708 -0.456901 -0.320905 -0.107782 0.44783 -0.360343 0.255686 -0.373855 0.556824 -0.0243923 0.316125 -0.153492 0.0112503 -0.416035 -0.499978 0.162956 0.0759663 0.0605418 0.198308 0.245699 -0.586128 -0.257685 -0.214857 0.0841023 -0.219486 -0.406566 0.109513 0.328929 -0.116087 -0.367952 -0.303312 -0.262517 -0.195161 0.140595 0.108267 0.259857 0.0387317 0.400613 -0.260158 -0.0278494 0.317838 -0.309209 -0.518268 0.149228 -0.418789 0.174474 -0.461166 0.304431 -0.112084 -0.3588 0.0736979 -0.193876 -0.00762878 -0.415133 -0.323036 -0.189563 -0.417096 0.410226 -0.493953 -0.0146446 -0.368783 -0.177701 0.451539 -0.385595 0.585438 -0.138558 0.197338 -0.000298303 0.41985 -0.116148 0.16829 0.0275774 -0.0824509 0.464621 0.0360315 0.247599 0.360848 -0.178512 0.354562 0.235306 0.305889 0.488596 -0.40727 -0.2666 -0.0327288 -0.273184 0.243413 0.417867 -0.0625241 -0.124724 0.501521 -0.0267978 0.0195466 -0.0122631 0.415555 -0.0111819 0.232069 0.423127 0.297054 0.401162 0.639051 0.149362 0.473562 0.62643 0.351443 0.314007 0.352466 0.249606 0.143396 -0.266948 -0.0871693 0.137768 -0.0459435 0.247987 -0.141855 0.138745 -0.28655 0.296016 0.15487 -0.211175 -0.0683676 0.368004 0.191748 -0.0240645 0.474637 0.471656 1.04814 0.517094 0.40364 0.543994 0.0929535 0.362679 -0.0190693 0.123116 -0.306668 -0.317844 -0.275821 -0.26945 0.487851 -0.2521 0.185229 0.379771 0.0520244 -0.344415 0.255663 0.115971 0.290077 0.346959 0.570417 -0.0170573 0.0673218 0.381911 -0.29901 0.595749 -0.107743 0.14948 0.407105 0.307955 -0.0942777 0.134283 0.726731 -0.0924518 0.46259 -0.344054 0.336063 0.393036 -0.290611 -0.0240545 -0.2976 0.221083 0.0355127 0.142457 -0.291082 -0.302277 -0.434754 -0.149555 0.13486 0.120016 0.166864 0.0585497 0.431624 0.00541781 0.0150722 -0.329394 -0.579093 -0.714738 -0.171191 -0.403395 0.0855435 0.0503394 0.0595606 -0.0482753 -0.343982 -0.11574 0.109344 0.478849 0.237366 0.424414 0.262228 0.101143 -0.303489 0.0963448 0.0616371 -0.0463149 -0.23213 -0.134717 -0.0219312 0.0219939 -0.534305 -0.431196 -0.856721 -0.773731 -0.30047 0.00129117 -0.297795 -0.2956 0.0533939 -0.205846 0.174033 0.219334 -0.10671 -0.217292 0.194745 -0.457569 -0.0199474 -0.16378 0.420524 -0.487271 0.0592487 0.138198 -0.251972 -0.671554 0.347476 -0.0642081 0.136064 -0.249688 -0.146221 -0.274692 -0.510484 -0.278341 0.450568 -0.493049 -0.392054 -0.0231212 0.162736 -0.757831 -0.31038 -0.659364 -0.685899 -0.649835 0.308944 -0.382543 -0.454348 -0.0630577 0.343995 -0.233642 -0.0619611 -0.592958 -0.249669 -0.31653 -0.0918468 -0.310571 -0.250025 -0.402859 -0.189373 -0.384093 0.284981 0.367272 0.32401 0.281744 0.165598 0.327074 -0.355328 -0.254325 -0.375782 -0.238758 0.00493229 -0.310445 -0.151272 0.402238 -0.440978 -0.0143776 0.412802 0.117976 0.069741 -0.370266 -0.346113 0.0784494 -0.0836985 -0.119154 -0.594499 -0.377023 0.665111 0.0542761 0.127164 -0.517045 -0.144706 0.293298 0.0462069 -0.471024 -0.0138331 -0.0703015 -0.206962 0.298013 0.0634555 0.39705 0.139346 -0.424011 -0.195515 -0.297031 0.408826 0.264075 0.201849 -0.258694 -0.543692 -0.0239099 -0.130819 -0.404683 -0.0771326 -0.258325 0.230431 0.136632 -0.259864 0.427716 -0.513175 -0.591968 -0.577081 -0.0255482 -0.192198 -0.0321158 -0.535614 -0.538781 -0.187529 0.248249 0.380153 -0.483898 0.0313792 0.41543 -0.112027 0.330818 -0.34978 0.427793 0.110252 0.320491 0.0290255 -0.170691 0.384914 -0.0289658 0.0952269 0.323448 0.196207 0.383971 -0.19369 0.150129 -0.030628 -0.425165 -0.313078 -0.204827 -0.190598 0.399401 0.0305346 0.110277 0.450301 -0.174534 0.290997 -0.0682022 0.369536 -0.319342 0.455341 -0.268569 -0.192374 0.206359 -0.253555 -0.0254664 -0.145438 0.117913 -0.281067 -0.301406 -0.359019 -0.0707593 -0.346873 -0.130472 -0.143665 -0.285703 0.0914711 0.504384 -0.226419 -0.0571236 0.0456135 -0.226974 0.103786 -0.137685 0.0025343 -0.493707 0.19172 0.161482 -0.45655 -0.147033 0.463028 -0.10174 -0.14396 0.316362 0.16863 -0.0806203 0.0195519 0.0691582 -0.216411 -0.101893 -0.266356 0.232674 -0.0485932 -0.518369 0.325888 0.0911327 -0.356182 -0.100364 -0.285069 0.17571 -0.392851 0.289367 0.0366878 -0.445451 0.471845 0.012644 -0.220021 -0.027376 0.385647 -0.144819 -0.348319 -0.3243 -0.281138 0.0747737 -0.244823 -0.62646 -0.497085 -0.17024 0.316658 -0.476293 0.112511 -0.135814 -0.369144 0.436639 -0.110193 0.0622673 0.302717 -0.52732 -0.472958 0.192052 -0.223317 -0.315712 -0.460638 -0.47815 0.255091 -0.353981 0.00191974 0.194052 0.0478147 -0.416405 0.064647 -0.695999 0.0402398 0.200698 0.02877 0.0950172 -0.124716 -0.359113 0.221948 0.0675899 -0.212451 0.102018 0.150528 0.318925 -0.0658274 -0.104709 -0.246775 0.46151 -0.357289 0.07983 -0.21745 -0.220992 -0.10053 0.51633 -0.392145 0.217886 -0.183858 -0.143815 -0.127376 -0.021264 -0.267828 -0.143809 -0.194952 -0.29742 -0.093929 0.206223 -0.324707 -0.124666 0.329145 -0.438451 0.191607 0.407287 -0.436464 -0.359878 0.445819 0.0374424 -0.485851 -0.242368 -0.050056 0.192909 0.232604 0.508766 -0.140492 0.221616 0.419236 0.23195 -0.380517 0.450504 0.337418 0.121265 0.129413 -0.429996 -0.164552 0.249605 -0.0691595 0.353726 -0.0133771 0.0147374 0.295521 -0.351612 -0.118528 -0.148218 -0.053441 0.276925 -0.017069 0.294014 0.076489 -0.157931 0.309894 -0.254024 -0.204567 0.194581 -0.0179289 -0.379389 0.0720871 0.0122101 -0.0114136 0.606055 0.150043 0.324357 -0.315048 0.144732 0.201463 -0.0154414 0.0839461 0.184558 -0.185858 0.00207308 -0.0875759 0.38144 -0.255536 0.454124 0.455817 -0.252368 -0.151948 0.395556 0.46599 -0.0526983 -0.169909 -0.031513 0.223329 -0.0570064 0.479906 -0.160918 -0.204013 0.0821636 0.244437 -0.0430367 -0.0264913 -0.0526511 -0.191616 -0.220153 0.570244 0.224967 0.0356693 0.0852327 0.529284 -0.226017 0.200914 0.212858 0.10486 -0.411422 0.176872 -0.435905 0.096143 0.238633 -0.336553 0.143818 -0.636452 0.366994 0.00397953 -0.237217 -0.306132 0.362922 -0.45808 -0.170352 -0.0903826 0.207291 -0.0161416 -0.404688 -0.171141 -0.161554 -0.256876 -0.0935467 0.210698 -0.27826 -0.133321 -0.109083 0.476457 0.454666 0.300138 -0.258341 -0.431963 -0.183096 -0.233202 0.00642948 0.278908 0.359476 0.347632 -0.136234 0.188195 -0.192149 -0.434168 0.18894 -0.481086 -0.0854059 -0.1717 0.212976 0.275321 -0.204429 0.294213 -0.216251 -0.0764243 0.232212 0.19292 0.487368 -0.274839 0.162318 
0.109682 0.415098 -0.343638 0.251798 0.068269 -0.225334 -0.025565 -0.166223 0.079313 0.389001 0.069305 0.131722 0.018748 -0.448834 -0.267141 -0.007998 -0.189765 -0.318236 0.004133 -0.17719 -0.241892 -0.036015 -0.366716 0.427746 0.367702 0.207621 -0.393786 0.275877 0.307957 0.267765 -0.386034 0.143908 0.334325 0.077353 0.146407 -0.0416307 0.0286945 -0.465634 0.138889 -0.418655 -0.0650564 -0.209086 0.0418967 -0.362605 0.191187 0.294066 -0.336788 -0.395722 -0.354492 0.377128 0.028189 -0.032739 -0.393288 0.149556 0.368 0.328186 0.126055 -0.424721 -0.387603 -0.449771 -0.2422 -0.364339 -0.239952 -0.114957 0.442972 0.102412 0.319642 0.201459 -0.390757 0.233707 -0.214975 0.126674 -0.200906 0.465845 -0.252771 -0.223553 0.426462 -0.478655 0.195683 0.224727 0.336075 0.474482 0.475602 -0.434723 0.321839 0.14631 0.147342 -0.369037 0.151013 0.482555 0.411845 -0.0614671 -0.46163 -0.16079 0.29623 0.181493 -0.0344253 -0.440941 -0.075202 -0.072078 0.32832 0.075582 -0.215002 0.0168967 -0.435764 0.466057 -0.150182 -0.0357208 -0.162199 0.179112 0.161945 0.215322 -0.231857 -0.184332 -0.374749 0.154344 -0.464857 0.0940639 0.341017 0.359928 -0.11639 -0.0200669 -0.448298 0.158954 0.395673 -0.123678 -0.0492643 0.292876 0.258819 -0.320532 0.0274967 -0.320839 -0.42654 0.380034 0.238668 0.183426 -0.515301 0.317283 -0.0698993 -0.160987 0.046476 -0.408647 0.256511 0.0814765 -0.314443 -0.311381 -0.349088 -0.519941 0.0259554 0.319712 -0.512779 -0.429699 -0.00532771 0.311789 -0.247832 -0.356092 -0.209653 -0.38008 -0.666654 0.117214 0.0539543 -0.0218405 0.0803067 0.00627369 -0.405614 -0.196095 -0.371352 -0.374191 0.176196 0.3586 0.477124 0.127334 -0.316639 -0.385282 0.294788 -0.025345 -0.0287333 0.161051 0.182078 0.358604 -0.49488 0.204748 0.332195 -0.478201 -0.182733 -0.446817 0.26393 -0.623574 -0.132588 -0.441788 0.165587 -0.370828 -0.323654 0.0219967 0.45455 -0.284835 -0.35576 0.258977 0.0101036 0.409934 -0.356806 0.162187 -0.29223 -0.472649 -0.0302548 -0.0118809 0.288099 -0.108927 0.0229314 -0.114888 0.412238 -0.222782 -0.245876 -0.292328 -0.141203 -0.487621 0.286642 -0.16941 0.537104 -0.320155 0.207927 0.475978 -0.306364 0.468649 -0.047117 0.445715 0.176752 -0.201206 -0.316875 -0.186568 -0.432485 -0.522957 -0.486754 -0.0836946 0.330302 -0.197293 -0.259466 0.0456708 -0.484681 -0.369318 -0.137329 0.532247 0.505376 0.0550243 0.35794 0.213214 0.235386 0.348147 0.472677 -0.0437727 -0.435377 -0.0435791 0.390974 0.069494 0.328858 0.487316 -0.345044 0.15871 0.137378 0.384801 0.394231 0.129079 -0.0407714 0.403608 -0.431521 0.133678 0.263523 0.0672145 0.504326 0.263018 0.3171 0.104053 0.436405 0.563037 0.568363 -0.169556 0.799621 0.417468 -0.216496 -0.434217 -0.232003 0.412203 0.126835 0.214549 -0.254534 0.185474 -0.513063 -0.0887285 0.107506 -0.200955 0.501608 -0.172038 0.252884 -0.187467 0.026345 -0.310962 -0.549747 0.298501 -0.213883 0.462096 0.51849 -0.175392 -0.127766 0.291085 0.709928 0.687791 0.0843078 0.295751 -0.364254 0.477437 0.459406 -0.338015 -0.220969 -0.430511 -0.257944 0.32897 -0.106626 -0.265553 -0.167369 0.528856 0.228025 -0.0779697 -0.506753 0.126334 -0.0180844 -0.48683 -0.628474 -0.479475 -0.498425 -0.00140602 0.394041 -0.00588262 0.369979 0.0577312 0.235612 0.23426 -0.326036 -0.138784 0.135105 -0.426524 -0.171729 -0.0327575 0.451514 0.0902107 0.395688 0.0477307 0.382233 0.271375 0.5126 -0.0543477 0.0141748 -0.0891514 -0.175076 -0.47087 -0.667224 -0.819554 0.0626003 -0.606846 -0.466044 0.0983074 -0.231872 0.0320224 -0.324064 0.459806 0.351581 0.36379 -0.093845 0.265668 -0.386016 -0.548375 -0.547184 0.205805 -0.129577 0.0809468 -0.387141 0.0827252 0.212352 -0.0342237 0.38828 -0.0876886 0.449191 0.11594 -0.412418 -0.517216 -0.137272 0.0641178 -0.210032 -0.352664 0.257235 0.146858 -0.0509939 -0.0116224 -0.295739 0.126803 -0.14127 0.497899 -0.0240908 -0.0248854 0.0655528 0.371693 0.15983 -0.156205 0.0736856 0.0399108 -0.0890124 -0.251632 0.010157 -0.137139 0.451177 -0.287019 0.197227 -0.269455 -0.0685358 -0.123673 -0.432751 -0.160488 -0.447588 0.0944574 -0.0587105 0.27818 -0.279529 -0.335434 -0.0935074 0.432983 0.214226 -0.116575 0.0844017 -0.380306 0.400577 -0.0139708 -0.369864 0.144715 -0.24513 0.419836 -0.488748 -0.014206 -0.450449 0.10753 0.170071 -0.0952647 -0.0782436 0.225291 -0.549545 -0.190119 -0.261768 0.46592 -0.120411 0.230134 0.184725 -0.287919 -0.261105 -0.215774 -0.106649 -0.302858 -0.503327 0.407814 0.412326 -0.274083 -0.114236 -0.437757 0.175162 0.24691 -0.444542 -0.330466 0.222489 0.0255255 -0.4939 0.0296485 -0.247124 -0.219136 0.172739 0.272281 -0.116356 0.411562 -0.109754 0.265797 -0.016123 0.397532 0.407264 -0.427189 0.38266 0.334965 0.272223 -0.37133 0.231118 0.362298 -0.103876 0.527113 -0.472745 -0.40464 0.0466942 0.190788 0.15505 -0.417097 0.391002 -0.524407 -0.413945 -0.618217 -0.0255802 0.388158 0.140341 0.293939 -0.484527 0.0419037 -0.040437 -0.00103729 -0.430199 0.162284 -0.0537718 0.257769 -0.0147926 -0.288459 0.142382 -0.418085 0.200794 0.0353526 -0.339682 0.415278 -0.073094 -0.41096 0.0833576 -0.332739 0.137413 0.320667 0.522267 -0.173979 -0.144846 0.21854 -0.371687 0.0380075 0.0459412 -0.410941 -0.082016 0.353273 0.348958 -0.406518 -0.400055 -0.182574 0.361368 -0.253725 0.230965 -0.544932 -0.118952 -0.357165 0.163493 -0.223029 0.137823 -0.196187 0.199307 0.242427 -0.31305 0.456424 0.0417163 -0.498117 -0.179543 -0.330151 0.232433 0.279169 -0.383332 0.00614 0.314625 0.436162 0.00490297 0.384829 -0.0553585 -0.178534 0.333573 0.00861386 0.0280869 -0.0922465 0.197614 0.247494 -0.186839 -0.168398 -0.134532 0.0470337 -0.368322 0.307461 0.028688 0.00210598 -0.384934 -0.333342 0.409815 -0.188709 -0.302788 -0.0133802 -0.190486 -0.464841 -0.176855 0.0441019 0.0457339 -0.176355 -0.167037 0.3388 -0.237653 -0.347935 -0.296924 -0.186143 0.201741 -0.2799 0.284427 -0.449354 -0.174854 0.278019 -0.230063 0.119841 -0.142803 0.383593 -0.425236 0.30139 -0.318502 0.379361 -0.126345 0.25126 -0.180441 0.405912 -0.373363 -0.32148 -0.00898311 -0.394914 -0.376599 0.28746 0.318264 -0.31433 0.235304 0.039969 -0.202864 0.183189 0.140845 0.437464 -0.222001 0.285153 -0.3062 -0.131648 -0.340806 0.461797 0.242334 0.245273 8.0255e-005 -0.179282 -0.318955 -0.184761 -0.12403 0.25631 0.039662 -0.422516 -0.481974 -0.377246 -0.106845 0.326708 0.0213072 0.196225 -0.0553838 -0.0747067 -0.269843 0.452673 0.338668 -0.491767 0.0153263 -0.0242346 0.147443 0.408225 0.0481572 -0.0782042 -0.493317 -0.464264 -0.306885 -0.443039 0.249248 0.242822 -0.363955 0.336079 -0.345214 -0.198824 -0.251021 -0.128771 -0.265229 -0.0937665 -0.210449 0.438515 -0.427069 -0.287651 -0.281863 0.30428 -0.32451 0.367855 -0.0994853 -0.155049 -0.0691156 -0.347399 -0.31806 -0.24095 0.0632234 -0.302358 -0.381597 0.472161 -0.478075 0.302706 0.288037 -0.202786 -0.364373 -0.354371 0.197509 0.142807 0.274496 0.401913 0.123955 -0.398196 -0.332368 0.288616 -0.246929 -0.317011 0.297571 -0.152642 0.299275 0.187842 -0.298587 0.64553 -0.132923 -0.178159 -0.117035 -0.452565 -0.0127329 -0.376787 -0.100062 -0.14929 0.27284 0.303171 -0.346587 -0.133449 -0.126647 -0.348661 0.29782 0.197994 -0.342907 -0.164667 -0.406761 0.0809772 -0.414504 0.544459 0.344564 -0.177651 -0.0218712 0.484186 0.166472 -0.260865 -0.14013 0.294361 0.121154 0.145444 0.354647 0.393429 0.419794 -0.405151 0.044126 0.24051 0.256927 0.106716 -0.333213 0.297421 0.220111 -0.413864 -0.0321526 -0.303066 -0.141707 -0.477984 -0.102573 0.0475799 0.119078 0.155884 0.327917 -0.289502 -0.37989 0.349911 -0.349387 0.468533 0.339371 -0.00412735 0.46774 -0.406321 -0.196934 0.138224 -0.149993 0.428373 
-0.434374 0.049412 0.090866 0.152728 -0.244334 -0.135434 0.343681 -0.305057 0.326868 0.062655 0.262188 0.213607 -0.290138 0.0739603 0.367723 -0.067884 0.466591 -0.047785 -0.357214 -0.110565 0.451702 -0.180279 0.368098 0.381251 -0.149813 -0.416742 0.224558 -0.188488 0.282924 -0.057345 -0.014733 0.277909 -0.117637 -0.0568691 -0.123734 -0.132547 0.0259848 0.308928 -0.137443 0.024759 0.185748 -0.220627 -0.211223 0.458431 0.216325 0.0781217 0.152376 -0.46759 0.119701 0.0133649 0.0495585 -0.140347 -0.418526 -0.306661 0.450745 -0.0913 -0.033317 -0.44729 -0.462428 0.217192 0.0397297 0.00872476 -0.256742 0.244634 -0.333909 -0.323713 -0.0632531 -0.204862 -0.25608 0.159385 0.240335 0.43939 0.0149933 -0.395361 -0.208667 0.505226 0.114327 0.228868 -0.474926 0.026637 -0.464948 0.0663877 0.420771 0.468419 0.040553 -0.041795 0.442537 0.173192 -0.434951 -0.0336495 -0.259166 -0.0312336 -0.0551384 0.0533912 -0.184393 -0.318965 0.00391547 0.402164 0.302749 -0.0560595 0.444221 0.391412 -0.297022 -0.435659 0.249396 0.353945 0.480306 0.388567 0.0889571 0.0271974 -0.472159 -0.253344 -0.040385 0.128504 0.0487065 0.240706 -0.218419 0.0804352 -0.389664 -0.06677 0.258878 0.13441 0.39897 -0.256218 0.0755145 -0.0219351 -0.0118479 0.279365 -0.00222649 0.207644 -0.388948 0.350726 -0.445898 0.391406 -0.183767 -0.192028 -0.00154447 0.432738 -0.45745 -0.147769 0.356572 -0.103946 -0.300657 -0.0764166 -0.132617 0.40958 0.229732 -0.0233585 0.454644 -0.120141 -0.594075 -0.34536 -0.0494612 -0.276491 0.338899 0.143457 -0.481482 -0.108629 0.151231 0.40488 0.37441 -0.0534225 0.215322 0.0215459 0.0191671 -0.403063 -0.376693 0.029534 -0.231138 -0.478963 0.206156 -0.509975 0.0457985 -0.00387873 0.393633 -0.0982443 -0.489153 -0.00422368 0.149864 0.328789 -0.239103 -0.304357 0.456271 -0.268038 0.000391625 -0.140025 -0.465166 -0.217929 -0.276981 0.0675293 0.34141 -0.321445 0.240048 -0.492141 0.0358465 -0.429572 0.434033 0.265435 0.143587 0.271412 0.0623579 0.380915 0.134394 0.370749 -0.0518757 -0.361082 -0.026263 -0.438125 0.0359792 0.028997 0.197298 -0.28052 -0.332598 -0.0861421 0.280975 -0.280075 -0.208071 0.0689382 0.0290266 -0.299417 -0.150073 -0.309288 0.470486 -0.369433 -0.128163 -0.482185 -0.28417 0.252842 -0.363906 -0.474041 -0.067803 -0.577933 -0.508903 0.304976 0.286376 0.288391 0.447964 0.299544 -0.327409 0.298398 0.308195 0.207682 -0.0685669 -0.391447 0.200927 0.132363 0.419482 -0.409346 -0.297794 -0.299337 0.292598 -0.313111 -0.433419 0.497275 -0.477982 0.324991 -0.170575 0.2492 -0.0331814 0.242373 0.397577 -0.43487 -0.34031 -0.19596 0.266328 0.408735 -0.115434 0.174235 -0.365408 0.193948 0.408533 -0.250083 -0.0476414 -0.465559 0.040846 -0.0537872 -0.381032 -0.0734344 -0.177179 0.0218199 0.085562 -0.491827 0.266192 0.21906 -0.145909 -0.548255 0.107766 0.377495 -0.157021 -0.0406126 -0.233919 0.269547 -0.237551 -0.0844073 0.0660721 0.0515941 -0.181849 -0.178268 0.0229472 -0.541682 -0.419461 0.28057 -0.49644 0.116575 0.33345 -0.306576 -0.164168 0.0566067 0.381699 0.440112 0.253957 -0.393734 0.163603 -0.175508 -0.10935 -0.435758 -0.215559 0.159205 -0.00610451 0.146208 0.122838 0.374995 0.260432 -0.298036 -0.480422 -0.25375 0.380222 0.1524 0.121253 -0.021517 -0.260107 0.213063 -0.0507459 -0.455665 -0.411469 0.0285348 0.43657 -0.194506 0.378752 0.305004 -0.280229 -0.493677 -0.375964 0.291943 -0.389331 -0.369903 -0.0544838 0.288617 -0.440991 -0.213578 0.0246084 0.0399474 0.252515 -0.342367 0.348126 0.316419 0.165666 0.177554 -0.152447 -0.395087 0.13975 0.0037239 0.122299 -0.158849 0.406865 0.0869248 -0.413655 -0.000564487 0.225204 0.270575 0.00898402 0.410464 -0.308506 -0.213737 0.245936 0.240696 0.00903714 0.238238 -0.385761 0.357074 -0.116799 -0.332972 -0.251241 0.0427865 -0.108275 -0.115387 -0.34488 -0.189573 0.0917513 -0.0540921 -0.163531 0.246321 0.39351 0.25679 -0.167984 0.297687 -0.352917 -0.356418 -0.181361 0.21201 -0.335025 -0.444808 -0.456947 0.295506 0.131236 -0.182336 0.10593 0.0631744 0.258526 -0.295871 0.327057 -0.0627649 0.428115 -0.357502 -0.0385585 -0.138124 0.0347476 -0.448802 0.277524 -0.282221 0.177038 0.303212 0.061879 0.284173 0.2002 -0.124549 0.296164 -0.290408 -0.0178747 0.107405 -0.153201 -0.0565695 0.045685 0.383074 0.455267 0.110352 0.117485 0.360035 -0.308848 -0.135518 0.291333 0.362463 0.359237 -0.112623 -0.442849 -0.0996475 -0.289571 -0.209257 0.272268 -0.424478 0.327129 -0.0525566 0.15497 -0.356345 -0.153001 -0.453962 0.377462 0.150141 -0.154034 -0.12763 0.589852 -0.042767 -0.131266 0.233517 0.469705 -0.504311 -0.065634 0.571117 -0.292355 -0.414969 -0.0102128 0.254913 -0.0952262 0.425703 0.118162 -0.427553 0.492832 -0.0921091 -0.212915 0.0540363 -0.182818 -0.371031 -0.427298 -0.0822123 0.253358 -0.160141 0.436747 -0.162726 -0.079749 -0.115307 -0.0734369 -0.125046 0.273566 0.240015 0.432282 -0.2713 0.323543 -0.221779 -0.464774 0.295545 0.0491696 -0.396664 -0.104622 -0.221266 0.236821 -0.046584 0.490664 -0.448684 -0.154856 -0.0428829 -0.0790416 -0.262463 0.0293315 0.0865312 0.200967 0.171715 0.383317 0.124568 0.570665 -0.0329675 -0.16591 -0.361708 -0.151783 -0.413975 0.313461 -0.204669 -0.503434 -0.0193745 -0.506634 -0.406245 -0.291937 -0.0415969 -0.066749 0.301075 0.237555 -0.0790073 -0.177415 -0.239614 0.208737 -0.541126 -0.658448 0.0958773 -0.28397 -0.511299 -0.293525 0.597493 0.606042 0.345211 -0.0515781 -0.0140169 0.388987 0.350808 -0.31861 0.251538 -0.453628 -0.348155 0.116698 -0.158799 0.376768 -0.41226 0.011526 0.419155 0.402417 -0.354583 -0.152384 0.0692886 -0.411287 0.371412 0.318933 -0.474345 -0.575485 -0.604768 0.394365 -0.0153128 0.241325 0.0726691 0.156318 -0.374285 -0.356716 0.303117 0.310268 0.20356 -0.580797 -0.1923 0.112374 -0.257668 0.397264 0.133889 -0.428093 0.409003 0.454465 -0.433986 0.00841725 -0.247126 -0.185573 -0.474092 -0.0743325 0.210706 -0.269451 -0.693692 0.165983 0.185068 0.643312 0.0719124 -0.313841 -0.337572 0.187548 -0.387876 0.190081 -0.312408 -0.231787 -0.0708291 0.445239 0.429875 -0.294336 -0.141781 -0.350601 0.009985 -0.0408046 0.393982 0.408021 -0.156394 -0.0458363 0.282609 0.190745 -0.750142 -0.52441 -0.382499 -0.21805 -0.0895576 -0.235033 0.273719 -0.170157 -0.471813 -0.331549 0.225642 0.307148 -0.0466485 -0.114033 0.441797 -0.30847 -0.285065 -0.207917 -0.327243 -0.120634 0.410834 0.115348 -0.0890772 0.413939 -0.476808 -0.332391 -0.0396181 -0.0165278 -0.640361 -0.30036 0.0585983 0.254057 0.169248 -0.0448199 -0.395042 -0.118826 -0.508346 0.362511 -0.0498354 -0.187694 0.282694 -0.00351219 -0.214436 0.297447 0.366245 0.173129 -0.453036 0.066323 0.263295 -0.363497 -0.271173 0.371925 -0.497976 0.209236 -0.115455 -0.217453 -0.674738 0.262362 -0.0278714 0.101756 0.18358 0.246686 0.462244 -0.0560981 -0.293407 0.325976 0.0156463 -0.283584 -0.39334 0.338929 -0.136853 0.1444 -0.0402712 -0.306142 0.101687 -0.439317 -0.086658 0.046615 -0.0637839 0.243402 0.313407 0.247974 -0.49864 -0.362089 -0.0244424 0.468948 0.422127 0.356004 -0.142557 0.0695306 0.0419735 -0.413488 -0.597329 0.393014 -0.313601 -0.280518 -0.387467 0.433577 0.078967 0.160536 0.406947 -0.159914 0.121507 -0.461201 -0.313227 0.331246 0.266768 -0.149357 -0.126539 0.0268554 -0.503867 -0.247406 -0.24552 -0.203808 0.348304 -0.16657 -0.231018 0.116976 0.424238 -0.237937 -0.422281 -0.119747 0.258812 0.0538736 0.34929 0.476659 0.292663 0.103805 -0.006658 -0.459931 0.484322 -0.116519 -0.347772 0.166709 -0.215712 0.085778 0.086768 -0.0534727 0.340639 -0.230796 -0.0502801 0.0473381 0.167673 0.287812 -0.102633 0.149964 -0.348535 0.432655 -0.116329 0.24655 -0.471111 -0.294547 -0.0108181 0.403855 0.027255 0.42987 -0.016203 -0.009551 -0.380253 
0.302656 -0.253035 0.399612 0.410824 0.44331 0.02023 0.177094 0.278516 -0.368985 0.100957 -0.465702 -0.002434 -0.345157 -0.317077 -0.134952 -0.067563 0.123172 -0.425572 0.003692 -0.317375 0.073975 0.137405 0.056709 0.238296 -0.164391 0.265107 -0.067233 -0.015816 0.148102 -0.481642 0.153994 0.118585 -0.190153 -0.414206 -0.409065 0.423224 0.189279 -0.372897 -0.143277 0.092483 0.335572 -0.456339 -0.263367 0.389749 -0.490834 -0.298601 0.459024 0.113402 -0.238329 -0.433009 -0.471809 -0.255255 0.381486 -0.084086 0.220333 0.418285 -0.09196 -0.308723 0.017118 0.408084 0.304374 -0.43417 0.192573 0.071898 0.407463 -0.377668 0.0336057 0.378688 -0.106373 -0.0322097 -0.432124 -0.220535 -0.173335 0.449075 -0.220512 -0.043128 0.165353 -0.340972 -0.0138406 0.238539 0.366855 0.126259 0.169054 -0.373717 0.445776 -0.367426 0.274673 -0.235184 0.433593 0.219973 0.253836 -0.280157 -0.0458575 0.13912 0.28606 -0.380151 0.45188 0.367297 -0.253592 0.302873 -0.0214352 -0.0826595 -0.220178 0.0625508 0.211861 -0.0958672 0.129841 0.199103 0.21094 -0.448034 0.359748 -0.041747 -0.237584 -0.258235 -0.016986 0.386832 -0.121652 0.249769 -0.40199 0.00268977 0.528878 0.30369 -0.26828 0.00946897 -0.2783 -0.120914 0.236224 0.206546 -0.322439 0.376437 0.0430672 -0.171349 -0.0413969 0.0749642 0.0468701 -0.0171697 0.00414622 -0.323588 0.312733 0.04176 -0.36892 0.266157 0.432444 0.447307 -0.130982 -0.364461 0.0270437 -0.347958 0.464566 -0.310063 -0.256273 -0.118464 -0.161155 0.254088 -0.0762487 -0.393607 -0.282429 -0.026023 -0.394705 0.0592816 0.00880072 0.160071 0.396891 0.39233 0.441136 -0.255285 -0.368435 -0.197723 0.395085 0.472053 0.359325 -0.389982 0.447938 -0.0718415 -0.471205 -0.0160076 -0.444426 0.0345819 -0.196156 -0.067286 0.079222 0.356811 0.136047 -0.0912869 0.271703 0.358268 -0.426089 0.000176941 -0.246598 -0.498372 0.113637 0.337674 -0.34916 0.312347 0.354712 0.416163 -0.234715 0.403953 -0.179337 0.0533973 -0.443322 -0.443966 0.244002 -0.0144554 -0.254374 -0.33944 0.137003 -0.515516 0.328299 -0.409789 -0.32164 -0.13137 -0.0294432 -0.174312 -0.227151 0.423757 0.107468 -0.506095 -0.132155 0.333814 -0.211542 -0.406887 0.261483 0.106589 0.070313 -0.446423 -0.359501 0.125134 -0.283554 0.0289785 0.0718733 -0.182773 0.473238 0.344587 0.213414 -0.397709 -0.360863 0.0126896 -0.34728 0.462495 -0.351945 -0.0210539 -0.176569 0.100317 -0.404122 -0.0951811 -0.27299 0.347884 -0.468213 0.414462 0.33197 -0.202429 0.289294 -0.468754 0.466908 0.0283831 -0.179376 -0.105659 -0.418109 0.489638 -0.431521 0.194146 -0.0503995 0.452894 -0.251769 0.0289539 -0.0412125 0.175625 -0.435852 -0.313978 -0.307996 0.205794 -0.349411 0.0373973 -0.324725 0.332395 0.434271 0.0166676 -0.149293 -0.265942 -0.450212 -0.231457 0.154306 0.0344436 0.454507 -0.0793231 0.198338 -0.0116942 0.0179322 -0.206503 -0.00412831 0.00186401 0.204338 0.425557 -0.189031 -0.495416 -0.00815338 0.0648368 -0.333593 0.233082 0.458906 0.411095 -0.333538 0.338173 0.200985 -0.0454604 0.0404202 0.3496 -0.0198627 -0.126783 -0.00672267 0.0798876 -0.307619 0.420535 0.177569 0.13541 -0.392979 0.106083 -0.375242 -0.414229 0.0367908 -0.0666543 0.103536 -0.445441 -0.0901259 -0.315249 0.507953 0.049206 0.152668 -0.209012 -0.42653 0.444502 -0.216874 -0.0715047 0.149864 -0.475303 0.310259 0.036578 -0.221783 -0.437447 -0.341198 0.40816 0.183911 -0.241132 -0.431142 0.179258 0.0675189 -0.101282 -0.133765 -0.252514 0.191771 0.472337 -0.348586 0.0896324 -0.0524021 -0.0663651 -0.282799 0.303342 -0.0231053 0.0191644 -0.195963 -0.311745 -0.41409 0.214119 -0.303766 0.190075 -0.109624 -0.0838165 -0.0338719 -0.140078 -0.41576 -0.211978 0.129698 0.118018 -0.253752 -0.0686814 -0.313134 -0.264005 -0.468529 0.391583 -0.300037 -0.243224 -0.184323 -0.389262 0.109351 -0.421314 -0.362301 0.125367 -0.159967 0.213649 0.057425 -0.243979 0.150828 -0.383726 0.0364105 -0.0629121 -0.236126 0.0736789 0.308851 0.441655 0.0406636 -0.184901 -0.342391 -0.29331 -0.0674716 -0.157412 0.390145 -0.169805 -0.158337 -0.0899933 0.398268 0.157158 0.105922 -0.154089 0.307564 -0.4769 0.365344 0.00572446 -0.10175 -0.002833 0.167416 -0.487235 0.371503 -0.0530614 -0.169873 -0.407232 -0.133049 -0.0673927 -0.149047 0.118797 -0.140623 0.42738 0.0447867 0.244232 -0.456388 -0.140327 -0.183394 0.0651706 0.393814 -0.421341 -0.424471 0.319011 -0.317519 0.155482 0.0283392 0.320465 -0.374911 -0.370217 0.056818 0.446379 -0.0869748 -0.175729 0.0805417 0.366072 0.285834 0.480709 -0.492245 -0.419612 0.0890622 0.315025 -0.24896 -0.320103 0.224362 -0.493841 -0.168745 -0.00810255 0.0521944 0.185136 -0.181397 0.0630033 0.0461386 0.0285263 0.120301 -0.250129 -0.415351 -0.380728 -0.275418 0.000198 0.337231 0.196278 0.248086 -0.223065 -0.158916 -0.121758 -0.314371 -0.45424 0.102036 0.502031 -0.351591 -0.473829 0.251654 -0.286335 0.287251 0.162825 0.384933 -0.145727 0.115876 -0.0767589 0.112103 -0.0681458 -0.321914 0.007897 0.028584 0.310604 0.235521 0.163792 -0.387773 0.215427 -0.0362734 0.321354 0.342672 -0.484818 0.307551 -0.462171 -0.140341 0.0308724 -0.369707 0.24069 -0.50045 -0.364543 0.0258579 0.183144 0.409691 0.184539 0.168458 -0.111555 -0.499745 -0.383448 0.0319912 0.17513 -0.082552 0.230679 0.021862 -0.425824 -0.307994 0.337482 0.203498 0.333685 -0.461647 0.41723 -0.350265 -0.535066 0.448476 -0.242087 0.144285 -0.347832 0.0317337 0.341877 -0.212289 0.173148 -0.2822 0.128929 -0.170973 -0.289475 -0.18771 -0.324794 0.400568 -0.102813 -0.254721 -0.051592 -0.179464 0.244419 0.47122 -0.0641565 0.346252 0.0206295 -0.417243 0.109354 -0.0730865 0.0724824 0.327047 -0.112902 0.351328 0.208629 -0.0595303 0.0657975 -0.158641 0.525885 0.20391 -0.49239 -0.193005 0.122268 -0.447476 -0.479282 -0.049976 -0.16731 -0.061701 -0.237307 -0.335282 0.189143 0.014571 -0.301646 -0.192608 0.0674598 -0.47045 -0.410894 -0.496104 0.249447 0.215207 0.206973 0.18151 0.131646 -0.0447849 0.157793 -0.448206 0.13764 0.273937 -0.0391494 -0.165809 -0.227109 0.138872 0.191867 0.370832 -0.157667 0.269772 0.061356 0.382836 0.027812 0.0176278 0.0771989 0.238942 0.450216 -0.443568 -0.468697 0.410699 0.0179968 0.13665 -0.0122475 -0.405778 0.256555 0.254044 -0.184411 -0.185319 0.358842 -0.432851 0.352727 -0.261945 0.0871834 0.434718 0.177969 -0.0856395 0.189524 -0.15602 -0.222742 0.496683 0.25079 0.14472 -0.14471 -0.453813 -0.474749 0.047706 0.256416 0.0361526 0.340502 -0.470021 -0.140285 -0.275886 -0.0648215 -0.43656 0.447787 -0.260682 0.449871 -0.068196 0.481038 0.0495931 0.429513 -0.495595 0.247284 0.402897 -0.360291 -0.403874 -0.075427 0.433679 0.042387 0.027456 -0.358874 -0.498135 0.311009 -0.412488 0.133973 0.414743 -0.292015 0.165158 -0.421853 0.102877 -0.334464 0.24437 -0.182287 -0.00732643 0.108845 -0.33583 0.237004 -0.202166 0.158481 -0.344828 0.186748 -0.37186 -0.0746468 -0.252794 0.248375 -0.237965 0.381717 0.39182 -0.303559 0.113846 -0.412282 -0.108463 0.213651 0.160191 0.125394 -0.216917 -0.121758 -0.397053 0.227781 0.0176221 0.233694 -0.235142 -0.179739 -0.176703 -0.478737 -0.160515 0.303196 0.397384 0.0182283 -0.044498 -0.469175 0.379204 -0.48699 0.44475 -0.010784 -0.158066 0.424218 -0.475609 0.081425 0.048933 -0.28068 -0.0711129 0.152264 0.227131 -0.499283 0.436853 -0.335084 -0.254215 -0.227729 -0.460886 -0.375646 0.482153 -0.18974 -0.385376 -0.392968 0.219501 0.35459 -0.243048 -0.47909 -0.27691 -0.443484 -0.396605 -0.068492 -0.270082 0.015946 -0.246506 0.440537 0.405944 0.066806 -0.145576 -0.118853 -0.088148 0.227579 -0.0483605 0.360896 0.455063 -0.162795 0.0607189 -0.404816 -0.299465 -0.0865339 -0.293797 0.37657 -0.341704 -0.044339 0.105699 0.191864 -0.116931 0.369099 
0.068319 -0.060492 -0.432759 -0.035311 0.320736 0.114541 0.332162 -0.005988 -0.381538 -0.48636 -0.19678 0.19799 0.29026 -0.204244 -0.00434342 -0.0788809 -0.089477 -0.268651 -0.363629 -0.303311 -0.444668 -0.301869 -0.490799 0.127258 -0.183625 0.473145 -0.306283 -0.154171 -0.142159 -0.491549 0.339208 -0.468006 0.44018 0.392062 0.0297915 0.0312124 0.136171 -0.117416 0.146419 -0.455451 -0.446049 -0.0431922 0.0469635 0.382721 -0.403326 0.319297 -0.290066 -0.106058 -0.183496 -0.0998515 -0.349863 0.00307043 0.301643 -0.058466 -0.009386 0.348768 0.206058 -0.009546 -0.242304 0.383067 0.0762461 -0.278918 -0.233257 0.282727 -0.489468 0.460225 -0.402441 0.26953 -0.12503 -0.042914 0.334347 -0.109541 0.0109857 -0.479855 -0.509214 -0.253012 0.180782 -0.380038 -0.388754 -0.0900597 0.147197 0.212022 -0.321549 -0.420412 0.440397 -0.239334 0.353346 0.358105 0.270704 -0.342423 0.310412 0.280381 0.0489735 -0.266634 -0.294192 -0.420358 -0.0257454 0.0470513 -0.188902 -0.0550421 -0.189004 0.0838483 0.328725 -0.341258 -0.0984818 -0.369859 0.135431 0.2291 0.429078 -0.221388 0.449787 -0.436737 0.103014 -0.442867 0.393774 0.0297865 0.169595 0.337552 -0.319346 -0.448016 0.325233 -0.251073 -0.429222 -0.081823 0.0670763 -0.501605 -0.283781 -0.528084 -0.129884 0.310559 0.377294 0.10982 -0.327051 0.450783 0.125575 -0.277551 0.395632 0.238867 0.220312 0.202251 -0.29966 -0.288993 0.188305 -0.279414 -0.0470519 0.341401 0.392709 0.0315946 0.335515 0.372524 0.165102 -0.400763 -0.349373 -0.227162 -0.41782 -0.200641 -0.334013 -0.209179 0.201489 -0.534331 0.131006 0.193713 -0.331355 0.458456 0.0647298 -0.176731 0.221686 -0.25286 0.19351 -0.460289 0.318853 -0.076298 0.133818 -0.220677 0.292326 0.315124 -0.00847815 0.185731 -0.00282056 0.354728 0.0189646 0.40518 0.291879 -0.194937 -0.330824 -0.208356 0.196219 -0.151451 0.181232 0.442251 -0.0586315 0.142547 -0.312441 -0.436613 0.278231 -0.411494 -0.228619 0.354546 -0.163828 0.447454 0.437024 -0.2615 -0.427606 0.27336 -0.0505928 -0.300188 0.311819 -0.480943 0.471485 -0.286277 -0.346471 -0.347209 0.618208 0.262007 0.150157 -0.0265265 0.0323892 -0.112314 0.000420607 0.126138 0.114012 -0.270999 0.438471 -0.337403 0.465653 -0.486962 -0.0240375 -0.162784 -0.0707962 0.0857406 -0.0145073 -0.0266477 0.2492 0.25327 0.4054 -0.164989 0.111992 0.0351115 -0.123362 0.063663 -0.0830749 -0.292221 -0.278102 -0.208429 0.342424 0.26688 0.415077 0.27043 -0.341376 0.408641 0.359342 -0.0573522 0.0858697 0.476131 0.0537174 0.439413 -0.41232 -0.255919 0.0171938 0.0416246 0.233407 0.410855 0.016529 -0.39026 0.237388 -0.061667 -0.306776 -0.0277677 0.232419 0.3016 0.110608 0.0664582 0.683865 0.301398 -0.0779695 -0.245478 0.282459 -0.234591 -0.310968 0.0740649 -0.209997 0.128845 -0.366184 0.18874 -0.191265 -0.507805 -0.33643 0.302265 0.22154 -0.215601 0.459064 0.0697782 0.287096 -0.264817 -0.0263764 -0.581003 -0.114532 0.371734 0.14946 0.0612607 -0.178531 0.324812 0.0764658 -0.20887 0.469967 -0.423445 -0.175054 0.432945 -0.179063 -0.252393 0.0343511 0.327283 -0.400655 0.5014 0.306074 -0.511875 0.121092 0.095629 0.104033 0.273723 0.364605 -0.348494 -0.0628276 0.203925 0.0659631 -0.0192355 -0.233707 0.346 0.0521258 -0.26561 0.242649 0.265741 -0.0330493 -0.222839 0.136807 -0.211848 -0.263992 0.228797 -0.460132 -0.398466 -0.458398 -0.258332 -0.436256 0.45085 -0.17496 -0.160328 -0.149411 0.374426 -0.0347686 -0.181856 0.427396 0.119159 -0.00133315 -0.121798 0.016693 -0.115636 0.21576 -0.181194 0.0168283 -0.471443 -0.367676 -0.13663 0.423222 -0.122764 0.164074 -0.245163 -0.372899 -0.422838 -0.14256 -0.247101 -0.290346 0.337325 -0.421423 0.0725307 -0.165843 -0.0859808 -0.080844 -0.190567 -0.0895584 0.264097 0.365281 -0.217777 -0.364729 0.425145 0.0148033 0.136864 -0.15041 -0.448964 -0.0253397 -0.0151566 -0.30742 -0.0481993 0.296948 0.090426 -0.402456 0.0705689 0.262637 0.374323 0.126541 -0.260328 0.293251 0.154136 -0.520358 -0.0858601 -0.206525 0.30272 -0.147347 -0.0305568 0.215525 0.0967306 0.345039 0.541808 -0.388466 0.107072 -0.125392 0.234457 -0.363306 0.417286 0.0975193 0.293529 -0.4144 -0.316542 0.262267 -0.462598 0.354107 -0.446573 0.173958 -0.122013 0.0862083 0.113299 -0.274299 -0.446465 -0.438989 0.143217 0.0174749 0.16602 -0.273102 -0.121204 -0.0366484 -0.475799 -0.184678 0.478819 0.359253 -0.241695 -0.0146865 0.262021 -0.0711416 -0.482042 -0.42549 0.0103931 0.473272 0.199605 -0.415667 -0.266489 0.262648 0.207535 0.0622041 0.124628 -0.52379 0.256717 0.297715 -0.0595759 0.282733 -0.433789 -0.496613 -0.309503 -0.280051 -0.125977 -0.107473 0.0282604 0.0156645 -0.248689 -0.503486 0.0473247 -0.103205 -0.2015 0.366941 0.246744 0.360278 -0.0159705 -0.389519 0.167668 -0.296179 -0.190231 -0.450697 0.352021 -0.320306 0.359568 0.465576 -0.0544556 0.13712 -0.0195907 0.20845 -0.129607 0.477416 0.0118488 0.481407 0.0227133 -0.0505016 0.265047 0.254142 0.0313045 -0.311149 -0.0368674 0.468073 0.252986 0.310925 -0.486712 -0.0828821 0.0581249 0.27564 -0.40016 0.427221 -0.0630514 -0.39936 -0.131637 -0.0874247 -0.0358567 -0.689827 -0.62884 0.184493 -0.40807 -0.0753077 -0.0923609 -0.0580631 0.160903 -0.169377 0.17385 0.0154094 -0.408575 -0.337353 -0.0641762 -0.103111 0.243545 0.0779497 -0.127059 -0.330143 -0.315822 0.0394085 0.0230213 0.111504 -0.327201 0.208757 0.588935 -0.13435 -0.161016 0.0657441 -0.516188 0.01521 -0.35113 0.169573 -0.535265 0.348177 0.043577 0.125874 0.132051 0.050802 -0.0568727 0.35799 0.456836 -0.000964 0.431535 0.0816047 0.0103306 -0.0807963 -0.331782 -0.53414 -0.276618 0.111864 -0.0298476 0.071721 0.745137 0.0320176 -0.1312 -0.606216 -0.710965 0.20467 0.16989 0.319556 -0.317524 0.0998544 -0.22608 -0.292196 -0.481285 -0.373479 -0.196019 -0.382936 0.48586 -0.191367 -0.369676 -0.30157 0.0575225 -0.487775 0.342126 0.383181 -0.353961 -0.0491776 -0.358746 0.248681 0.0268055 -0.202326 -0.44841 -0.0977491 -0.340209 -0.443564 0.338747 0.221826 0.436417 -0.271392 0.410462 0.19633 -0.360652 0.210602 -0.0583737 0.433355 -0.358389 0.142833 -0.11802 0.451901 -0.192345 0.427146 0.335424 -0.273497 0.246949 0.482811 -0.210017 0.0778336 0.0936446 -0.323955 -0.726351 -0.552096 -0.493348 -0.203689 -0.263595 0.414788 0.291311 -0.209276 0.326916 0.179184 0.479244 -0.471593 -0.24266 0.426886 0.432134 0.220586 0.265763 -0.411685 -0.00848226 -0.286918 -0.336545 0.38914 -0.174493 0.0134771 0.493411 -0.0935168 0.599993 0.205167 -0.24859 -0.590153 -0.450326 -0.234802 -0.229908 -0.178083 0.623277 -0.147123 0.344653 -0.490512 0.0847593 0.425724 -0.210342 -0.312994 0.15168 0.212601 0.188031 -0.179228 -0.26823 0.442798 0.472968 0.0581065 0.47879 0.130821 0.130528 -0.159961 -0.0980875 -0.203227 -0.774823 -0.370768 -0.0895049 -0.125683 0.0556914 0.475032 -0.375718 0.088571 0.400073 0.151447 -0.115678 -0.351457 0.38345 -0.0310322 0.378115 0.085852 0.174192 0.304253 0.165998 -0.0681633 0.0717989 0.314021 -0.102989 -0.00168314 -0.243653 0.509805 -0.337096 0.0785177 -0.232188 -0.259992 0.0344367 -0.51191 0.141894 0.378466 0.337566 -0.274379 0.504717 0.220549 0.404543 -0.00442257 0.0404402 0.417134 0.39991 -0.051839 -0.225587 -0.10683 -0.112088 -0.215582 -0.245853 0.358919 -0.394854 0.196246 -0.32017 -0.138092 -0.406695 -0.209161 0.262647 0.370445 -0.282823 -0.0747537 -0.0243637 0.400514 0.320671 0.0733431 0.220422 0.363784 -0.491118 -0.0971082 0.407243 0.240313 0.042841 0.029645 -0.15223 0.020521 0.155383 -0.0816369 0.214155 0.359769 -0.353645 -0.0560787 -0.0934174 0.20148 -0.248404 0.140941 0.383062 -0.0686562 0.411092 0.486928 -0.39943 -0.264496 0.470659 0.469423 -0.392731 -0.463441 -0.334938 0.496013 -0.32 0.002548 0.348418 
-0.479598 0.104489 -0.222975 0.362335 -0.216539 0.186756 0.17422 -0.278506 -0.465201 -0.09075 -0.210807 0.308978 0.300364 -0.0429922 0.106496 0.10426 0.327158 -0.074998 -0.224553 -0.234965 0.036192 -0.050852 -0.059879 -0.408863 0.218604 -0.286263 -0.303046 -0.087242 -0.272222 0.083858 -0.128537 -0.051088 0.037169 -0.296464 -0.344248 0.380424 -0.0662617 -0.0879025 -0.464375 -0.00201235 0.0541829 0.0598801 0.199968 -0.332392 -0.255208 0.307424 0.448546 -0.362728 0.00058305 -0.278118 -0.439281 -0.174497 -0.356312 0.209933 0.033725 -0.356166 -0.490758 0.308157 -0.323806 0.106214 -0.163044 0.0854873 -0.184352 -0.413206 -0.278923 -0.32219 -0.089664 0.147251 -0.25676 -0.497581 0.00489581 0.108643 0.467812 0.110932 0.0176672 0.13205 0.465691 0.353502 -0.171704 -0.25932 -0.237035 0.00442101 0.244049 0.003219 -0.432204 0.223581 0.30597 -0.209724 0.173553 -0.0748279 0.387981 0.339898 0.022981 0.211902 0.442485 0.00502478 -0.203633 0.204155 -0.310724 -0.104022 0.320588 0.143736 -0.0306226 -0.144054 0.0716708 -0.0761762 -0.284902 0.265846 -0.22554 -0.0317864 -0.110779 0.482077 -0.108908 -0.420018 -0.410205 0.0925338 0.0991963 -0.093102 -0.0882389 -0.466375 0.028037 0.0602762 -0.279164 -0.412633 -0.462151 -0.454082 0.0573753 -0.397329 -0.353919 -0.500447 0.404828 0.32228 -0.185677 0.0772411 -0.166078 0.0970806 -0.418297 0.189152 0.0244167 0.398639 -0.335607 0.304109 0.293552 -0.363389 -0.107927 -0.331126 -0.247017 -0.226985 0.0428814 -0.103564 0.415956 -0.463455 0.348305 -0.363691 0.199559 -0.0853468 -0.160604 0.569285 -0.0174229 0.215912 0.143438 0.0465153 0.0660342 0.297203 -0.361667 0.178897 0.398034 -0.442224 -0.359347 0.216632 -0.0609409 -0.101519 -0.375994 -0.00828027 -0.357154 0.0219458 0.284092 -0.241584 -0.0483887 0.382998 0.074744 0.0928321 -0.346308 0.342937 -0.253249 -0.209449 -0.0443669 0.172002 0.496489 -0.184894 0.0755066 0.233588 0.20711 -0.0702664 0.086266 -0.157616 -0.416126 0.482389 -0.374546 -0.445038 0.332856 -0.271649 0.0586212 -0.198672 -0.125988 -0.177204 -0.0882452 -0.036638 0.236408 -0.0453766 0.503782 -0.263815 0.237788 0.386682 0.669738 -0.147914 0.329712 0.294284 -0.381001 0.356462 -0.400935 0.307755 0.439435 0.157478 -0.0618012 -0.455485 0.418733 -0.0489655 -0.533967 0.0676643 -0.0856527 -0.393464 -0.183215 -0.285642 0.108121 0.195374 -0.0317602 0.299614 0.345152 -0.0588255 -0.582552 0.286943 0.185493 0.179225 0.169206 -0.254034 0.317509 -0.401191 0.236249 -0.454672 0.428293 -0.387489 -0.405129 -0.167685 -0.142407 -0.330296 0.0254845 -0.113904 -0.489686 -0.162186 0.508515 0.322033 0.194661 0.286357 -0.186157 -0.446133 -0.409395 0.0247244 0.281982 -0.160096 -0.533387 -0.64575 -0.49773 -0.283221 -0.665401 0.239613 -0.150136 0.420379 0.288475 0.256156 0.106688 0.125141 0.113012 0.0755519 0.0226067 0.403317 0.146763 0.298234 0.443484 -0.230619 -0.514932 -0.118724 -0.0136973 0.421443 -0.150749 -0.191994 -0.028506 -0.739907 -0.192286 -0.00225438 -0.664547 -0.269001 -0.229048 -0.557843 -0.389083 0.491326 -0.102574 -0.271555 -0.3287 0.161744 0.0997586 0.129757 -0.427349 0.407261 -0.101047 -0.167217 -0.00133569 -0.245787 0.205921 0.360373 -0.127565 0.578154 0.327264 0.344759 -0.143441 0.0331806 -0.392686 0.0993809 -0.744706 -0.21393 -0.250659 -0.269136 0.120663 0.339515 0.111739 0.353172 -0.235417 0.0131463 -0.0554417 -0.485863 0.0108757 0.154397 0.144274 0.205388 0.0944943 -0.41106 -0.372369 0.0845092 -0.338976 -0.432169 -0.0876015 0.134191 0.00124076 0.234595 0.136148 -0.299336 0.0814392 0.0492031 0.144725 0.0942714 -0.46695 0.19456 -0.124005 0.442625 0.317985 0.0869085 -0.254075 -0.312257 -0.252557 -0.0559353 -0.18703 0.0982709 -0.356032 0.596284 -0.38665 0.205056 0.164499 -0.0445114 0.217677 0.0469127 0.385617 0.0502554 -0.0992279 0.149224 0.064938 0.0982079 -0.280684 -0.149315 -0.386514 -0.447539 -0.248692 -0.426307 -0.39622 0.312829 -0.468838 0.147333 -0.323408 0.205689 -0.0717387 -0.319105 -0.0894431 -0.26279 -0.0354207 -0.641468 0.239716 -0.16856 -0.143569 0.264786 0.0275562 0.337346 0.0482129 0.352404 -0.0996981 0.400702 0.198657 -0.354366 -0.317537 -0.177227 0.461924 -0.243587 -0.0438712 -0.468985 -0.112357 0.0407874 0.36798 -0.0379652 0.325613 -0.0701719 -0.499099 -0.394752 -0.182043 0.0972118 0.160445 -0.200403 -0.272756 -0.527247 0.177591 0.399267 0.378967 -0.0335467 0.294158 0.136122 -0.230817 0.000137591 -0.447661 -0.380474 0.362593 0.240417 -0.077132 0.0169189 -0.145179 0.226904 0.180725 0.279451 0.298705 -0.295064 -0.0735323 -0.259865 -0.620462 -0.124456 -0.310524 -0.352604 -0.180388 0.205145 -0.541603 0.0380235 0.00717737 -0.363067 0.117829 0.214252 -0.00191573 0.376863 -0.239271 -0.464378 0.397218 -0.146392 0.076406 0.292125 -0.196756 0.23268 -0.367182 -0.175173 -0.15461 0.488827 -0.00116437 0.209415 0.134307 -0.20351 -0.0948894 -0.0805516 -0.236278 -0.215248 0.0238567 0.356884 0.463838 0.419244 0.466321 -0.0147192 0.0910843 0.326791 -0.2173 0.391572 -0.0955735 0.0999189 0.209805 0.450588 -0.274685 0.285732 0.0734494 -0.189689 0.576649 0.256947 0.381639 -0.100102 -0.0808764 0.183278 0.015469 -0.104847 0.536578 -0.0835276 0.153919 -0.0359457 -0.0683596 0.119476 0.00413013 0.0480682 0.0305185 -0.064339 -0.439004 -0.0317068 -0.335856 -0.374633 0.432646 0.10495 0.151509 -0.0838274 0.398167 0.0989764 0.406304 0.107888 0.556791 0.440284 0.530908 -0.0211615 0.00522961 -0.185622 -0.431784 0.188218 -0.606646 -0.271862 0.0383187 -0.148914 -0.27663 0.219687 0.0197442 -0.482998 -0.0714443 -0.096614 -0.38983 0.175839 0.202097 0.220839 0.208571 -0.564068 0.380311 0.31038 0.427046 -0.433737 0.397877 0.457357 0.547617 -0.230263 0.196302 0.256737 -0.063095 -0.174799 0.410487 0.183726 0.209849 -0.0308382 0.292143 -0.479915 -0.0529521 0.201598 0.303265 0.0857864 0.40322 0.441991 -0.435681 -0.0977305 -0.530052 -0.239076 -0.0659085 0.350704 0.226354 -0.448876 -0.480689 0.171551 0.22535 0.0224045 0.514599 0.35714 -0.174068 0.36158 -0.0141965 0.278849 -0.0373055 -0.464113 0.438554 -0.0834597 0.217139 -0.146043 -0.472365 -0.387045 -0.00452087 0.189964 -0.165265 0.195487 0.161168 0.168815 -0.0397285 0.300154 -0.164752 -0.175586 -0.405875 -0.271883 -0.399114 0.115664 -0.308 -0.273091 0.178856 -0.239068 -0.189136 -0.365492 0.243586 -0.422309 -0.0788765 -0.0352925 0.181484 0.166547 0.324604 -0.449111 -0.203134 -0.219866 -0.353983 -0.210822 -0.196468 0.0197134 0.17198 -0.128934 0.182452 -0.207812 -0.161885 0.0720519 -0.423638 -0.42771 -0.191429 0.283644 0.147377 -0.349473 0.426653 0.213099 0.110441 0.271577 -0.102061 -0.267077 0.0465064 0.0930208 0.0562627 0.0585747 0.449116 0.402246 0.375717 0.301417 0.443298 -0.402202 -0.256575 -0.0592634 0.278997 -0.0298092 0.258351 -0.293747 -0.247526 0.15652 -0.366564 -0.136716 -0.263237 -0.0582844 0.415314 0.0163893 0.104758 -0.367835 0.403356 -0.120362 0.18807 0.261862 -0.273241 0.380428 0.116114 -0.071275 -0.317665 0.442301 0.255068 -0.291454 -0.165099 0.300078 0.205612 0.30234 -0.0139907 0.269748 -0.126155 -0.339861 0.115308 0.450304 -0.154641 0.135379 0.370341 0.189747 0.392466 0.340464 -0.358135 0.528366 0.274853 0.387926 0.168473 0.356285 -0.387617 -0.152262 0.376421 -0.298345 -0.421758 0.288048 0.336226 -0.335204 0.35576 0.189581 0.0282829 0.331422 -0.0895974 -0.302739 -0.206131 -0.00564317 0.1054 0.468 0.459578 0.208076 0.281645 -0.355337 -0.455656 0.362537 -0.426775 -0.25324 0.195329 -0.090552 0.376314 -0.20202 -0.488129 -0.199344 0.078075 -0.124062 0.034873 0.376695 0.412595 -0.23402 -0.0378681 0.0484793 0.446826 0.496673 -0.26515 0.223206 -0.123114 -0.491678 -0.493883 -0.046089 -0.0219967 -0.487475 0.183357 -0.214153 0.0547178 -0.199081 -0.332866 -0.092826 -0.267727 0.034801 
-0.301171 0.008406 -0.342621 0.170975 0.253938 -0.389606 -0.032198 -0.429128 0.098182 -0.235596 0.027624 0.017461 0.42567 0.0519644 0.082998 -0.098347 0.44908 0.277186 -0.214595 0.34421 -0.067604 0.328667 0.322888 -0.31113 0.201141 -0.209357 -0.202507 -0.203652 0.225568 -0.270174 -0.499094 0.215237 -0.328815 -0.395518 -0.262484 -0.120081 -0.02625 -0.455906 0.471057 0.214039 -0.178619 -0.178103 -0.0458977 0.128789 -0.353769 -0.311075 0.359419 -0.243745 -0.119797 0.371274 0.163148 -0.158288 0.1837 -0.480317 0.235643 -0.012984 0.313182 0.454638 0.425789 0.409265 0.0121707 -0.139854 -0.0349497 0.190443 0.382477 -0.295258 0.417482 0.320383 0.48711 0.401 -0.196661 -0.372124 -0.373294 -0.216101 0.0879471 0.299264 0.393926 0.122531 -0.495097 -0.314144 -0.400274 -0.136676 0.001351 -0.456603 -0.151522 -0.32082 0.14707 -0.035728 -0.00384699 -0.0730137 0.454167 -0.287575 -0.00500166 0.17481 -0.00544178 0.40854 -0.109651 0.0103218 -0.364785 0.115332 -0.2285 -0.370375 0.0141549 0.0304996 -0.422701 0.186397 0.115656 -0.311421 -0.030541 0.220323 0.029436 -0.104511 -0.177662 0.110394 0.439109 0.170595 -0.427295 -0.0280434 0.394558 -0.41554 0.46961 0.390022 -0.474778 0.417503 -0.0992463 0.33612 -0.22364 -0.258649 -0.104526 0.0549666 -0.606402 0.0272247 -0.360858 -0.187617 -0.172187 -0.0318811 -0.165877 -0.392636 -0.35438 -0.466562 -0.029751 0.454448 -0.384325 0.446317 0.238207 0.159171 0.175148 0.362605 -0.335 0.0346097 0.138209 0.0492835 0.37544 -0.474089 -0.0330762 -0.175047 -0.493056 -0.541793 -0.161452 0.211648 -0.125989 0.224441 -0.159445 -0.416017 -0.439416 -0.448805 -0.120057 -0.162762 0.217937 0.242822 -0.449871 -0.276086 -0.21603 0.0614294 -0.317051 -0.287201 0.511285 0.287118 -0.323954 0.0474252 -0.083906 0.184117 -0.0987883 -0.549089 0.145892 -0.174383 -0.413276 -0.321375 -0.133835 -0.24079 -0.304558 -0.125747 -0.475425 0.273731 -0.333493 -0.460015 0.153699 0.273937 0.315071 -0.0050797 -0.30156 0.210836 0.291897 -0.113369 0.467899 -0.310417 0.558234 0.465061 0.166953 0.353167 0.14707 -0.380936 -0.100533 -0.23759 -0.0961802 0.155237 -0.245804 -0.293471 0.016483 0.340478 -0.450984 -0.119735 -0.349905 0.194023 -0.394275 0.164705 -0.214405 -0.321519 0.416118 -0.486123 -0.00541848 -0.482987 -0.0131491 -0.0548633 -0.145109 -0.242431 -0.161074 -0.0381395 0.281014 0.025454 -0.0622979 -0.243942 -0.208483 -0.400196 -0.359984 -0.422046 -0.0194075 0.0668372 0.428372 -0.323001 0.13778 0.316298 0.0602488 -0.244412 -0.250963 -0.481016 -0.172149 0.256553 -0.458571 -0.326451 0.116688 0.24129 -0.0387175 0.273667 -0.315998 -0.412273 0.11771 0.181543 0.281787 -0.399719 0.0149652 -0.190996 -0.100167 -0.552669 -0.181607 0.311735 0.0284124 -0.0724883 -0.229125 -0.201968 -0.11688 0.335571 0.458252 -0.0824016 -0.0993363 0.346723 -0.0445286 0.021172 -0.237382 0.129328 -0.10013 0.236121 0.127084 -0.173471 0.435249 0.32007 -0.312295 -0.433674 -0.587664 -0.113927 -0.231866 -0.0164799 -0.266444 0.351377 -0.278831 -0.294121 -0.0278701 -0.001149 -0.284907 -0.227628 -0.32696 0.198727 0.29234 0.0461474 0.253909 0.414553 -0.25138 0.178731 0.132425 -0.385575 -0.249887 -0.151569 -0.0815841 0.382979 -0.124222 0.258188 0.166178 0.0343778 0.106401 -0.466489 -0.125326 0.0883618 -0.586401 -0.499687 0.34782 0.184027 -0.234629 0.188915 0.293822 -0.21156 -0.394899 0.559793 -0.127403 -0.198007 0.0678741 0.0444968 -0.376921 -0.254191 -0.207692 0.695545 0.0433118 0.358031 0.466182 -0.23853 0.387238 0.24966 0.289382 -0.272637 0.188479 0.228661 0.473267 -0.331225 0.254285 -0.161144 -0.324374 -0.078408 0.294915 -0.0354554 0.108175 0.563197 -0.0599346 0.175667 -0.187112 -0.258371 0.10366 0.287302 0.0685991 0.516844 0.0518065 -0.0630333 0.0686079 -0.413113 -0.261162 -0.038888 -0.510571 -0.192908 0.0407822 -0.00165788 0.384785 0.135158 -0.0912532 0.431381 0.284871 -0.299863 -0.367991 0.185484 0.0688526 0.254399 0.260914 0.165111 0.354714 -0.146277 -0.577809 0.130301 -0.269955 0.350825 0.490694 0.177511 0.128179 0.0113966 -0.0661305 0.00424559 0.173221 0.280035 0.163816 -0.29726 -0.0886175 0.275548 -0.0347966 0.0370451 0.271132 0.161265 -0.090243 0.406094 -0.364176 0.433756 -0.389479 -0.494194 0.265884 -0.389606 0.208106 0.256847 0.258519 0.34211 -0.392525 0.208717 -0.235458 0.107559 0.563675 0.0323985 0.115487 0.0744364 0.164272 0.402186 -0.532085 0.0518522 0.347112 -0.0129793 -0.421473 0.0605338 -0.167815 -0.339242 0.376507 0.0251183 0.433319 0.381636 0.318267 -0.504877 -0.0651084 -0.255958 0.257565 -0.705414 -0.3503 0.0489153 -0.0928839 -0.117355 0.375436 -0.228374 -0.430739 -0.118321 0.256572 -0.014141 -0.123492 0.05463 -0.125065 0.447609 -0.445095 0.173392 0.389366 0.300927 -0.298165 -0.188704 0.217255 -0.419811 0.390177 0.188264 0.150684 -0.599829 0.00412113 -0.147911 0.180498 -0.410646 -0.432472 -0.00146822 -0.141882 0.122752 0.379279 -0.0926473 0.41212 -0.533963 -0.35462 -0.459302 -0.167754 0.408696 -0.403048 0.106411 -0.0495903 0.436233 -0.348957 -0.307805 -0.491832 -0.0288663 -0.177885 0.29548 -0.0110482 -0.0811138 -0.219033 -0.698504 -0.0795923 0.652212 0.407834 0.313876 0.230201 -0.412663 -0.290572 -0.459629 -0.172849 -0.415453 -0.0525763 0.16852 0.375744 0.249036 0.438586 -0.446102 -0.489506 0.16118 -0.20668 -0.287118 -0.210984 -0.227825 -0.0512942 -0.188818 -0.112855 -0.018664 -0.361514 -0.518712 -0.281461 0.101374 0.285523 0.0213707 0.145504 -0.173514 0.0766898 0.00437578 -0.119331 0.0175949 -0.0231202 0.0562656 0.214126 -0.390553 0.249626 -0.364114 -0.434832 0.476613 0.452235 -0.449547 -0.065685 -0.340614 -0.116302 0.199452 0.296149 -0.06377 -0.473073 -0.218171 -0.223236 0.455519 0.41146 -0.0510457 -0.0667558 -0.164003 -0.590153 0.182658 -0.189467 -0.208298 -0.0232456 0.327844 -0.380419 0.357656 0.397509 0.44671 -0.101693 -0.282209 -0.112922 -0.157766 -0.308308 0.061676 -0.148754 0.209278 -0.559507 0.0316767 -0.0725662 -0.0800792 0.287701 0.250875 0.419392 -0.227809 0.131046 -0.477638 -0.695068 -0.436195 -0.504142 -0.272522 -0.302611 -0.468167 0.410893 -0.491777 0.236082 -0.347852 0.413268 0.393253 0.157795 0.182601 -0.488139 0.464407 0.253669 0.194464 0.00431386 -0.258402 0.218784 -0.35298 0.021022 -0.488455 0.351363 -0.328286 -0.161895 -0.0161069 0.125056 -0.0470598 -0.307342 -0.497059 0.29541 0.507572 0.309995 -0.039793 0.403767 -0.090152 0.0251642 -0.0226049 -0.0525048 0.279698 0.0471327 -0.182097 -0.346273 -0.650228 -0.101149 -0.339399 -0.421677 0.191566 0.24118 0.194762 -0.149003 0.367125 0.390222 0.230576 0.0344726 -0.217434 0.46113 -0.226602 -0.276154 -0.048292 -0.443159 0.478494 0.088434 0.056952 0.155796 -0.00302203 -0.467487 0.121441 0.227507 -0.0844933 0.205257 -0.343152 -0.348356 -0.352861 -0.232209 0.250031 0.360226 -0.105039 0.0927753 0.23148 -0.304784 -0.338361 0.492338 0.180643 0.50544 -0.16171 0.20742 -0.275524 -0.2388 0.011902 -0.180382 -0.332378 -0.237128 -0.464252 0.212667 -0.0061059 -0.405847 -0.331022 -0.389359 0.130205 -0.439175 0.179863 -0.608242 -0.313879 0.433448 0.152124 -0.40732 0.334141 -0.0125594 0.340635 0.112143 0.193562 0.496791 -0.284745 0.11759 -0.039093 -0.460548 -0.485529 -0.380771 0.149092 0.067163 0.05343 -0.468143 -0.030697 0.424623 -0.101248 0.133504 0.292751 0.287711 0.0175118 0.371782 -0.0789963 0.434352 -0.252538 -0.175922 -0.429331 0.294516 -0.0312152 -0.251599 -0.261948 0.401721 0.333971 0.0535382 0.116111 -0.025674 -0.108333 0.415477 -0.374387 -0.081553 -0.155438 -0.001849 -0.042368 0.01889 -0.360081 0.013142 -0.2575 -0.315304 -0.434579 0.266113 -0.074492 0.133969 0.232879 0.181418 -0.0260024 -0.109326 -0.123924 0.140269 0.000532261 0.352791 0.374702 -0.32944 -0.363766 0.130401 -0.198774 
